svm_type c_svc
kernel_type rbf
gamma 1.8
nr_class 3
total_sv 97
rho -1.27378 -0.887058 0.80357
label 1 2 3
nr_sv 36 22 39
SV
3.224225294137754 19 0:-0.34358752 1:-1 2:-0.72573657 3:-0.91724437 4:-0.70103986 5:1 6:-0.25563258 7:-0.9965338 
11.21705463458945 19 0:-0.41342756 1:-0.99962805 2:-0.74409522 3:-0.94420681 4:-0.73070485 5:1 6:-0.34164032 7:-1 
0 19 0:-0.43240343 1:-0.99928469 2:-0.74928469 3:-0.95028612 4:-0.73819742 5:1 6:-0.36516452 7:-1 
19 19 0:-0.44869073 1:-0.99646143 2:-0.75088464 3:-0.94338287 4:-0.73991507 5:1 6:-0.37438075 7:-1 
19 19 0:-0.46644845 1:-1 2:-0.75319149 3:-0.93289689 4:-0.75253682 5:1 6:-0.47561375 7:-0.97479542 
19 19 0:-0.46584053 1:-1 2:-0.75444318 3:-0.93347465 4:-0.75379097 5:1 6:-0.47301484 7:-0.97782488 
19 19 0:-0.46280033 1:-1 2:-0.75708368 3:-0.92676056 4:-0.75277548 5:1 6:-0.47274234 7:-0.97547639 
19 19 0:-0.46664487 1:-1 2:-0.75866579 3:-0.92838457 4:-0.75539568 5:1 6:-0.47874428 7:-0.97482014 
0 19 0:-0.50067751 1:-1 2:-0.76490515 3:-0.92344173 4:-0.76151762 5:1 6:-0.53726287 7:-0.9796748 
0 19 0:-0.48899266 1:-1 2:-0.76117412 3:-0.93195464 4:-0.760507 5:1 6:-0.52201468 7:-0.97798532 
19 19 0:-0.43297822 1:-1 2:-0.72523454 3:-0.93830498 4:-0.74208936 5:1 6:-0.43806647 7:-0.98091907 
10.81513519217444 19 0:-0.43614458 1:-1 2:-0.72080321 3:-0.94923695 4:-0.74618474 5:1 6:-0.44032129 7:-0.98939759 
0 19 0:-0.45024916 1:-1 2:-0.73444784 3:-0.94438193 4:-0.74955795 5:1 6:-0.45732197 7:-0.98681884 
0 19 0:-0.43424479 1:-1 2:-0.71289062 3:-0.95540365 4:-0.74707031 5:1 6:-0.44075521 7:-0.99707031 
19 19 0:-0.4520021 1:-1 2:-0.74995629 3:-0.93425424 4:-0.74610946 5:1 6:-0.39569855 7:-0.99930058 
19 19 0:-0.44139902 1:-0.99663696 2:-0.73768287 3:-0.94316462 4:-0.74978981 5:1 6:-0.38355473 7:-1 
19 19 0:-0.43908503 1:-0.99734792 2:-0.735455 3:-0.94264877 4:-0.75269352 5:1 6:-0.38073927 7:-1 
19 19 0:-0.44207723 1:-1 2:-0.73268975 3:-0.93541944 4:-0.75 5:1 6:-0.38482024 7:-0.99334221 
0 19 0:-0.43457649 1:-1 2:-0.76390645 3:-0.93299621 4:-0.75821745 5:1 6:-0.45764855 7:-0.99051833 
0 19 0:-0.43867999 1:-1 2:-0.77122005 3:-0.93717277 4:-0.7623354 5:1 6:-0.46025702 7:-0.99397112 
13.91103668769567 19 0:-0.43587302 1:-1 2:-0.76698413 3:-0.92984127 4:-0.75746032 5:1 6:-0.45777778 7:-0.98825397 
19 19 0:-0.43759924 1:-1 2:-0.76532232 3:-0.92950143 4:-0.7573833 5:1 6:-0.45982852 7:-0.98793268 
0 19 0:-0.44558656 1:-1 2:-0.76407244 3:-0.92853647 4:-0.75656714 5:1 6:-0.47234459 7:-0.97846304 
0 19 0:-0.44249513 1:-1 2:-0.76348278 3:-0.93079922 4:-0.75730994 5:1 6:-0.47076023 7:-0.98050682 
0 19 0:-0.40632848 1:-1 2:-0.74284279 3:-0.93537586 4:-0.74451699 5:1 6:-0.43981249 7:-0.98392767 
0 19 0:-0.42674742 1:-1 2:-0.75151416 3:-0.93419545 4:-0.7528237 5:1 6:-0.45915862 7:-0.98330332 
0 19 0:-0.4330167 1:-1 2:-0.75401245 3:-0.92924992 4:-0.75302981 5:1 6:-0.46609892 7:-0.98100229 
19 19 0:-0.41995054 1:-1 2:-0.74773289 3:-0.92943116 4:-0.7493817 5:1 6:-0.45523495 7:-0.98186315 
19 19 0:-0.42061006 1:-1 2:-0.74872218 3:-0.92844188 4:-0.74971146 5:1 6:-0.456554 7:-0.98153339 
17.83254819140268 19 0:-0.3890785 1:-1 2:-0.73208191 3:-0.93139932 4:-0.73856655 5:1 6:-0.42866894 7:-0.98395904 
19 19 0:-0.47227067 1:-1 2:-0.78932682 3:-0.88908266 4:-0.7704918 5:1 6:-0.52807813 7:-0.98569934 
19 19 0:-0.45387945 1:-1 2:-0.78354978 3:-0.9000999 4:-0.76523477 5:1 6:-0.51148851 7:-0.98434898 
19 19 0:-0.45038927 1:-1 2:-0.77902932 3:-0.90458837 4:-0.76312738 5:1 6:-0.50472089 7:-0.98409806 
19 19 0:-0.45084409 1:-1 2:-0.7795432 3:-0.90731546 4:-0.76299239 5:1 6:-0.50347567 7:-0.98510427 
19 19 0:-0.44438936 1:-1 2:-0.78020162 3:-0.89919022 4:-0.76070071 5:1 6:-0.4989258 7:-0.98413485 
19 19 0:-0.4158064 1:-1 2:-0.75731934 3:-0.91301405 4:-0.74716534 5:1 6:-0.46522254 7:-0.98612286 
-19 19 0:-0.3761745 1:-0.99261745 2:-0.69563758 3:-0.95067114 4:-0.73355705 5:1 6:-0.38557047 7:-1 
-19 19 0:-0.42319949 1:-1 2:-0.72657744 3:-0.94996813 4:-0.75047801 5:1 6:-0.4318037 7:-0.9987253 
-19 19 0:-0.43834063 1:-1 2:-0.72743478 3:-0.94457948 4:-0.75465889 5:1 6:-0.3842165 7:-0.99675903 
-19 19 0:-0.44643156 1:-1 2:-0.74293833 3:-0.93448103 4:-0.7553067 5:1 6:-0.39361524 7:-0.98729734 
-19 19 0:-0.44200423 1:-1 2:-0.73450464 3:-0.94110948 4:-0.74914592 5:1 6:-0.38506589 7:-0.98861233 
-19 19 0:-0.46386155 1:-1 2:-0.74855786 3:-0.91720394 4:-0.7478792 5:1 6:-0.41194435 7:-0.97896166 
-19 19 0:-0.46289982 1:-1 2:-0.74443903 3:-0.93602858 4:-0.75288196 5:1 6:-0.41581426 7:-0.98603669 
-19 19 0:-0.45760475 1:-1 2:-0.74364896 3:-0.92411745 4:-0.74925767 5:1 6:-0.41372484 7:-0.98020455 
-19 19 0:-0.45099306 1:-1 2:-0.73066365 3:-0.93088971 4:-0.74874859 5:1 6:-0.40933312 7:-0.98385274 
-19 19 0:-0.45273632 1:-1 2:-0.78109453 3:-0.91847216 4:-0.76215696 5:1 6:-0.47584657 7:-0.98587707 
-19 19 0:-0.45512923 1:-1 2:-0.77973993 3:-0.91395087 4:-0.76175951 5:1 6:-0.47696259 7:-0.98523037 
-19 19 0:-0.44698545 1:-1 2:-0.77450824 3:-0.91715976 4:-0.75819607 5:1 6:-0.47193347 7:-0.98368783 
-19 19 0:-0.45035234 1:-1 2:-0.77610506 3:-0.91639974 4:-0.75944907 5:1 6:-0.47501602 7:-0.98558616 
-19 19 0:-0.48451825 1:-1 2:-0.7920775 3:-0.91108805 4:-0.76543851 5:1 6:-0.53191489 7:-0.98962117 
-19 19 0:-0.47559082 1:-1 2:-0.78678627 3:-0.91029843 4:-0.76401587 5:1 6:-0.52147663 7:-0.98964982 
-19 19 0:-0.41270369 1:-1 2:-0.74359827 3:-0.92949784 4:-0.74625873 5:1 6:-0.44828733 7:-0.9820419 
-19 19 0:-0.42866503 1:-1 2:-0.75233415 3:-0.92760033 4:-0.75298935 5:1 6:-0.46502867 7:-0.98099918 
-19 19 0:-0.39611717 1:-1 2:-0.73262943 3:-0.93051771 4:-0.74012262 5:1 6:-0.43290191 7:-0.98297003 
-19 19 0:-0.4225445 1:-1 2:-0.74686882 3:-0.93012525 4:-0.7495056 5:1 6:-0.45583388 7:-0.98220171 
-19 19 0:-0.44830998 1:-1 2:-0.77873042 3:-0.89480627 4:-0.76026381 5:1 6:-0.49216818 7:-0.98252267 
-19 19 0:-0.44600165 1:-1 2:-0.77642209 3:-0.90107172 4:-0.75993405 5:1 6:-0.4928277 7:-0.98384171 
-19 19 0:-0.44608249 1:-1 2:-0.77439125 3:-0.90425708 4:-0.75848932 5:1 6:-0.49146927 7:-0.98343548 
-19 -0 0:-0.40340633 1:-0.99837794 2:-0.72879157 3:-0.95036496 4:-0.74566099 5:1 6:-0.41411192 7:-1 
-19 -18.09139755610422 0:-0.4181934 1:-1 2:-0.74605703 3:-0.94647124 4:-0.75274813 5:1 6:-0.42520312 7:-0.99872551 
-19 -19 0:-0.41694591 1:-1 2:-0.74629009 3:-0.94574757 4:-0.75075794 5:1 6:-0.42332855 7:-0.99648955 
-19 -19 0:-0.4144779 1:-1 2:-0.74471493 3:-0.94650865 4:-0.75176169 5:1 6:-0.42088405 7:-0.99679693 
-19 -0 0:-0.41590613 1:-1 2:-0.75 3:-0.94361147 4:-0.74869622 5:1 6:-0.43578879 7:-0.99934811 
-9.148389317348427 -0 0:-0.41289796 1:-0.99967347 2:-0.74334694 3:-0.94514286 4:-0.74922449 5:1 6:-0.43379592 7:-1 
-19 -0 0:-0.41597527 1:-0.99707174 2:-0.74296405 3:-0.94176021 4:-0.7484952 5:1 6:-0.43679844 7:-1 
-19 -19 0:-0.4323226 1:-1 2:-0.75085964 3:-0.93591747 4:-0.75211003 5:1 6:-0.44451391 7:-0.99374805 
-19 -0 0:-0.38727547 1:-0.99764982 2:-0.73476582 3:-0.94460299 4:-0.74315931 5:1 6:-0.40574114 7:-1 
-19 -19 0:-0.43522655 1:-1 2:-0.70995533 3:-0.94830887 4:-0.75047862 5:1 6:-0.39374601 7:-0.99617103 
-19 -19 0:-0.4445149 1:-1 2:-0.72098922 3:-0.94197844 4:-0.75332911 5:1 6:-0.40678503 7:-0.99207356 
-19 -19 0:-0.42870677 1:-1 2:-0.71040581 3:-0.94378652 4:-0.75082899 5:1 6:-0.39586294 7:-0.99526291 
-19 -19 0:-0.45236955 1:-1 2:-0.73671613 3:-0.92659965 4:-0.75363013 5:1 6:-0.42109462 7:-0.98372427 
-19 -19 0:-0.44533333 1:-1 2:-0.728 3:-0.92784314 4:-0.75309804 5:1 6:-0.42117647 7:-0.98431373 
-19 -19 0:-0.43765664 1:-1 2:-0.72368421 3:-0.93076441 4:-0.75156642 5:1 6:-0.41478697 7:-0.98715539 
-19 -19 0:-0.43463231 1:-1 2:-0.71904463 3:-0.93746072 4:-0.74984287 5:1 6:-0.41011942 7:-0.99151477 
-19 -0 0:-0.43432137 1:-1 2:-0.71170047 3:-0.950078 4:-0.75382215 5:1 6:-0.42152886 7:-0.9975039 
-19 -0 0:-0.44218532 1:-1 2:-0.71379792 3:-0.95064411 4:-0.75632469 5:1 6:-0.43007916 7:-0.99627503 
-14.53802228258619 -0 0:-0.42448726 1:-0.99782474 2:-0.70478558 3:-0.9533872 4:-0.75077688 5:1 6:-0.41858297 7:-1 
-19 -19 0:-0.46606335 1:-1 2:-0.78941873 3:-0.90741385 4:-0.75878872 5:1 6:-0.50226244 7:-0.98607727 
-19 -19 0:-0.46542972 1:-1 2:-0.79205321 3:-0.90757921 4:-0.75949589 5:1 6:-0.49938736 7:-0.98774724 
-19 -10.52925055829519 0:-0.46379045 1:-1 2:-0.78394111 3:-0.91508303 4:-0.76065742 5:1 6:-0.49700394 7:-0.98459168 
-19 -19 0:-0.46393862 1:-1 2:-0.77936914 3:-0.91372549 4:-0.75754476 5:1 6:-0.49224211 7:-0.97988065 
-19 -0 0:-0.42380952 1:-1 2:-0.75068027 3:-0.93537415 4:-0.74659864 5:1 6:-0.44931973 7:-0.98469388 
-19 -0 0:-0.41465915 1:-1 2:-0.74372117 3:-0.93746797 4:-0.74474628 5:1 6:-0.44165385 7:-0.98530668 
-8.793742564393977 -12.27421349914968 0:-0.3620124 1:-1 2:-0.71563981 3:-0.93875319 4:-0.72584761 5:1 6:-0.39154211 7:-0.98942763 
-19 -18.94432436188274 0:-0.4430759 1:-1 2:-0.76298269 3:-0.92509987 4:-0.75499334 5:1 6:-0.47270306 7:-0.97969374 
-19 -0 0:-0.44085305 1:-1 2:-0.76274575 3:-0.93068977 4:-0.75574808 5:1 6:-0.47084305 7:-0.98267244 
-19 -0 0:-0.43698038 1:-1 2:-0.75889591 3:-0.93315597 4:-0.75390755 5:1 6:-0.46425008 7:-0.98303957 
-19 -19 0:-0.45387945 1:-1 2:-0.77455877 3:-0.91308691 4:-0.76023976 5:1 6:-0.48684649 7:-0.97968698 
-19 -19 0:-0.45022288 1:-1 2:-0.77282483 3:-0.91679049 4:-0.75862638 5:1 6:-0.48126135 7:-0.97952782 
-19 -19 0:-0.44829854 1:-1 2:-0.77182311 3:-0.91681736 4:-0.75932928 5:1 6:-0.47854677 7:-0.98027289 
-19 -19 0:-0.45008183 1:-1 2:-0.77348609 3:-0.92274959 4:-0.7613748 5:1 6:-0.47855974 7:-0.98101473 
-10.34930247014201 -0 0:-0.48008172 1:-1 2:-0.79502894 3:-0.89785495 4:-0.7671093 5:1 6:-0.55635002 7:-0.98433776 
-18.19891558767091 -0 0:-0.47100472 1:-1 2:-0.7973702 3:-0.89851652 4:-0.76837492 5:1 6:-0.54146999 7:-0.98415374 
-19 -0 0:-0.42634373 1:-1 2:-0.76045123 3:-0.91572661 4:-0.75049768 5:1 6:-0.46516257 7:-0.98606503 
-19 -12.67786210238087 0:-0.46708573 1:-1 2:-0.79395844 3:-0.8784704 4:-0.76811594 5:1 6:-0.51178628 7:-0.9877772 
-14.9716277778585 -19 0:-0.43758621 1:-1 2:-0.78655172 3:-0.87827586 4:-0.75586207 5:1 6:-0.4937931 7:-0.98034483 
-0 -3.482951922187298 0:-0.4270048 1:-1 2:-0.77861549 3:-0.88622344 4:-0.74982865 5:1 6:-0.48355038 7:-0.98149417 
