svm_type c_svc
kernel_type rbf
gamma 9.2
nr_class 3
total_sv 87
rho 0.546559 -1.64772 -3.08154
label 1 2 3
nr_sv 29 24 34
SV
20.3663407785053 1.518812474903221 0:-0.34358752 1:-1 2:-0.72573657 3:-0.91724437 4:-0.70103986 5:1 6:-0.25563258 7:-0.9965338 
49 49 0:-0.43240343 1:-0.99928469 2:-0.74928469 3:-0.95028612 4:-0.73819742 5:1 6:-0.36516452 7:-1 
49 46.22864379023562 0:-0.44869073 1:-0.99646143 2:-0.75088464 3:-0.94338287 4:-0.73991507 5:1 6:-0.37438075 7:-1 
49 49 0:-0.46644845 1:-1 2:-0.75319149 3:-0.93289689 4:-0.75253682 5:1 6:-0.47561375 7:-0.97479542 
49 49 0:-0.46664487 1:-1 2:-0.75866579 3:-0.92838457 4:-0.75539568 5:1 6:-0.47874428 7:-0.97482014 
49 41.28990543623262 0:-0.50067751 1:-1 2:-0.76490515 3:-0.92344173 4:-0.76151762 5:1 6:-0.53726287 7:-0.9796748 
16.91861771408081 49 0:-0.48428928 1:-1 2:-0.76159601 3:-0.93150457 4:-0.7605985 5:1 6:-0.50955943 7:-0.97971737 
49 49 0:-0.47439934 1:-1 2:-0.75973488 3:-0.92974316 4:-0.75675228 5:1 6:-0.49229495 7:-0.97580779 
49 49 0:-0.43297822 1:-1 2:-0.72523454 3:-0.93830498 4:-0.74208936 5:1 6:-0.43806647 7:-0.98091907 
49 49 0:-0.43614458 1:-1 2:-0.72080321 3:-0.94923695 4:-0.74618474 5:1 6:-0.44032129 7:-0.98939759 
0 49 0:-0.45024916 1:-1 2:-0.73444784 3:-0.94438193 4:-0.74955795 5:1 6:-0.45732197 7:-0.98681884 
0 49 0:-0.43424479 1:-1 2:-0.71289062 3:-0.95540365 4:-0.74707031 5:1 6:-0.44075521 7:-0.99707031 
49 49 0:-0.4520021 1:-1 2:-0.74995629 3:-0.93425424 4:-0.74610946 5:1 6:-0.39569855 7:-0.99930058 
49 49 0:-0.44139902 1:-0.99663696 2:-0.73768287 3:-0.94316462 4:-0.74978981 5:1 6:-0.38355473 7:-1 
49 49 0:-0.44207723 1:-1 2:-0.73268975 3:-0.93541944 4:-0.75 5:1 6:-0.38482024 7:-0.99334221 
49 49 0:-0.43457649 1:-1 2:-0.76390645 3:-0.93299621 4:-0.75821745 5:1 6:-0.45764855 7:-0.99051833 
12.26249190803557 49 0:-0.43867999 1:-1 2:-0.77122005 3:-0.93717277 4:-0.7623354 5:1 6:-0.46025702 7:-0.99397112 
49 49 0:-0.43587302 1:-1 2:-0.76698413 3:-0.92984127 4:-0.75746032 5:1 6:-0.45777778 7:-0.98825397 
49 49 0:-0.43759924 1:-1 2:-0.76532232 3:-0.92950143 4:-0.7573833 5:1 6:-0.45982852 7:-0.98793268 
1.509468377870481 49 0:-0.40632848 1:-1 2:-0.74284279 3:-0.93537586 4:-0.74451699 5:1 6:-0.43981249 7:-0.98392767 
0 49 0:-0.42674742 1:-1 2:-0.75151416 3:-0.93419545 4:-0.7528237 5:1 6:-0.45915862 7:-0.98330332 
49 49 0:-0.4330167 1:-1 2:-0.75401245 3:-0.92924992 4:-0.75302981 5:1 6:-0.46609892 7:-0.98100229 
49 49 0:-0.41995054 1:-1 2:-0.74773289 3:-0.92943116 4:-0.7493817 5:1 6:-0.45523495 7:-0.98186315 
49 49 0:-0.3890785 1:-1 2:-0.73208191 3:-0.93139932 4:-0.73856655 5:1 6:-0.42866894 7:-0.98395904 
49 49 0:-0.47227067 1:-1 2:-0.78932682 3:-0.88908266 4:-0.7704918 5:1 6:-0.52807813 7:-0.98569934 
49 49 0:-0.45387945 1:-1 2:-0.78354978 3:-0.9000999 4:-0.76523477 5:1 6:-0.51148851 7:-0.98434898 
49 49 0:-0.44438936 1:-1 2:-0.78020162 3:-0.89919022 4:-0.76070071 5:1 6:-0.4989258 7:-0.98413485 
49 49 0:-0.43459638 1:-1 2:-0.76968699 3:-0.90510708 4:-0.75551895 5:1 6:-0.48434926 7:-0.98385502 
49 49 0:-0.4482075 1:-1 2:-0.77829176 3:-0.90219726 4:-0.76111019 5:1 6:-0.49611763 7:-0.98447051 
-49 49 0:-0.3761745 1:-0.99261745 2:-0.69563758 3:-0.95067114 4:-0.73355705 5:1 6:-0.38557047 7:-1 
-49 49 0:-0.42319949 1:-1 2:-0.72657744 3:-0.94996813 4:-0.75047801 5:1 6:-0.4318037 7:-0.9987253 
-49 49 0:-0.45261058 1:-1 2:-0.73761224 3:-0.92783505 4:-0.75324243 5:1 6:-0.39840372 7:-0.98603259 
-49 49 0:-0.43834063 1:-1 2:-0.72743478 3:-0.94457948 4:-0.75465889 5:1 6:-0.3842165 7:-0.99675903 
-49 49 0:-0.44643156 1:-1 2:-0.74293833 3:-0.93448103 4:-0.7553067 5:1 6:-0.39361524 7:-0.98729734 
-49 49 0:-0.44200423 1:-1 2:-0.73450464 3:-0.94110948 4:-0.74914592 5:1 6:-0.38506589 7:-0.98861233 
-17.11149899235274 31.54947371428758 0:-0.46386155 1:-1 2:-0.74855786 3:-0.91720394 4:-0.7478792 5:1 6:-0.41194435 7:-0.97896166 
-49 49 0:-0.46289982 1:-1 2:-0.74443903 3:-0.93602858 4:-0.75288196 5:1 6:-0.41581426 7:-0.98603669 
-49 49 0:-0.45760475 1:-1 2:-0.74364896 3:-0.92411745 4:-0.74925767 5:1 6:-0.41372484 7:-0.98020455 
-49 49 0:-0.45099306 1:-1 2:-0.73066365 3:-0.93088971 4:-0.74874859 5:1 6:-0.40933312 7:-0.98385274 
-49 49 0:-0.45512923 1:-1 2:-0.77973993 3:-0.91395087 4:-0.76175951 5:1 6:-0.47696259 7:-0.98523037 
-49 49 0:-0.44698545 1:-1 2:-0.77450824 3:-0.91715976 4:-0.75819607 5:1 6:-0.47193347 7:-0.98368783 
-49 49 0:-0.45035234 1:-1 2:-0.77610506 3:-0.91639974 4:-0.75944907 5:1 6:-0.47501602 7:-0.98558616 
-33.94541978613946 49 0:-0.51016081 1:-1 2:-0.80314543 3:-0.90952465 4:-0.7695706 5:1 6:-0.56352712 7:-0.99328503 
-49 49 0:-0.4922494 1:-1 2:-0.79331726 3:-0.91594902 4:-0.76782639 5:1 6:-0.54598691 7:-0.9927661 
-49 49 0:-0.48451825 1:-1 2:-0.7920775 3:-0.91108805 4:-0.76543851 5:1 6:-0.53191489 7:-0.98962117 
-49 49 0:-0.47559082 1:-1 2:-0.78678627 3:-0.91029843 4:-0.76401587 5:1 6:-0.52147663 7:-0.98964982 
-49 49 0:-0.41270369 1:-1 2:-0.74359827 3:-0.92949784 4:-0.74625873 5:1 6:-0.44828733 7:-0.9820419 
-49 49 0:-0.42866503 1:-1 2:-0.75233415 3:-0.92760033 4:-0.75298935 5:1 6:-0.46502867 7:-0.98099918 
-49 49 0:-0.39611717 1:-1 2:-0.73262943 3:-0.93051771 4:-0.74012262 5:1 6:-0.43290191 7:-0.98297003 
-49 49 0:-0.4225445 1:-1 2:-0.74686882 3:-0.93012525 4:-0.7495056 5:1 6:-0.45583388 7:-0.98220171 
-49 49 0:-0.44830998 1:-1 2:-0.77873042 3:-0.89480627 4:-0.76026381 5:1 6:-0.49216818 7:-0.98252267 
-49 49 0:-0.44600165 1:-1 2:-0.77642209 3:-0.90107172 4:-0.75993405 5:1 6:-0.4928277 7:-0.98384171 
-49 49 0:-0.43618606 1:-1 2:-0.77056779 3:-0.90531369 4:-0.75500745 5:1 6:-0.48352922 7:-0.98344645 
-49 -20.24671546855422 0:-0.4181934 1:-1 2:-0.74605703 3:-0.94647124 4:-0.75274813 5:1 6:-0.42520312 7:-0.99872551 
-49 -49 0:-0.4144779 1:-1 2:-0.74471493 3:-0.94650865 4:-0.75176169 5:1 6:-0.42088405 7:-0.99679693 
-49 -49 0:-0.4330336 1:-1 2:-0.75548194 3:-0.9384761 4:-0.75232687 5:1 6:-0.4415523 7:-0.98864174 
-49 -49 0:-0.44936306 1:-1 2:-0.77197452 3:-0.92834395 4:-0.75573248 5:1 6:-0.46210191 7:-0.98980892 
-49 -0 0:-0.41590613 1:-1 2:-0.75 3:-0.94361147 4:-0.74869622 5:1 6:-0.43578879 7:-0.99934811 
-37.31581223302395 -0 0:-0.41289796 1:-0.99967347 2:-0.74334694 3:-0.94514286 4:-0.74922449 5:1 6:-0.43379592 7:-1 
-49 -46.71740223945616 0:-0.4323226 1:-1 2:-0.75085964 3:-0.93591747 4:-0.75211003 5:1 6:-0.44451391 7:-0.99374805 
-0 -49 0:-0.38727547 1:-0.99764982 2:-0.73476582 3:-0.94460299 4:-0.74315931 5:1 6:-0.40574114 7:-1 
-49 -49 0:-0.43522655 1:-1 2:-0.70995533 3:-0.94830887 4:-0.75047862 5:1 6:-0.39374601 7:-0.99617103 
-49 -49 0:-0.44238976 1:-1 2:-0.72372372 3:-0.93867552 4:-0.75343765 5:1 6:-0.40888257 7:-0.99020073 
-0 -49 0:-0.42870677 1:-1 2:-0.71040581 3:-0.94378652 4:-0.75082899 5:1 6:-0.39586294 7:-0.99526291 
-49 -49 0:-0.45236955 1:-1 2:-0.73671613 3:-0.92659965 4:-0.75363013 5:1 6:-0.42109462 7:-0.98372427 
-49 -49 0:-0.44425278 1:-1 2:-0.72463541 3:-0.93194292 4:-0.75286185 5:1 6:-0.41571272 7:-0.98745492 
-49 -49 0:-0.44533333 1:-1 2:-0.728 3:-0.92784314 4:-0.75309804 5:1 6:-0.42117647 7:-0.98431373 
-40.59262504211744 -49 0:-0.43765664 1:-1 2:-0.72368421 3:-0.93076441 4:-0.75156642 5:1 6:-0.41478697 7:-0.98715539 
-49 -49 0:-0.44021397 1:-1 2:-0.72655758 3:-0.92920076 4:-0.75047199 5:1 6:-0.41378225 7:-0.98867212 
-49 -0 0:-0.44218532 1:-1 2:-0.71379792 3:-0.95064411 4:-0.75632469 5:1 6:-0.43007916 7:-0.99627503 
-49 -49 0:-0.46606335 1:-1 2:-0.78941873 3:-0.90741385 4:-0.75878872 5:1 6:-0.50226244 7:-0.98607727 
-49 -49 0:-0.46393862 1:-1 2:-0.77936914 3:-0.91372549 4:-0.75754476 5:1 6:-0.49224211 7:-0.97988065 
-49 -49 0:-0.42380952 1:-1 2:-0.75068027 3:-0.93537415 4:-0.74659864 5:1 6:-0.44931973 7:-0.98469388 
-49 -0 0:-0.41465915 1:-1 2:-0.74372117 3:-0.93746797 4:-0.74474628 5:1 6:-0.44165385 7:-0.98530668 
-49 -49 0:-0.4430759 1:-1 2:-0.76298269 3:-0.92509987 4:-0.75499334 5:1 6:-0.47270306 7:-0.97969374 
-49 -15.48154891824832 0:-0.44085305 1:-1 2:-0.76274575 3:-0.93068977 4:-0.75574808 5:1 6:-0.47084305 7:-0.98267244 
-49 -0 0:-0.43698038 1:-1 2:-0.75889591 3:-0.93315597 4:-0.75390755 5:1 6:-0.46425008 7:-0.98303957 
-49 -49 0:-0.45387945 1:-1 2:-0.77455877 3:-0.91308691 4:-0.76023976 5:1 6:-0.48684649 7:-0.97968698 
-49 -49 0:-0.45022288 1:-1 2:-0.77282483 3:-0.91679049 4:-0.75862638 5:1 6:-0.48126135 7:-0.97952782 
-49 -0 0:-0.45974196 1:-1 2:-0.77494692 3:-0.90854156 4:-0.76547444 5:1 6:-0.50775764 7:-0.97746203 
-49 -0 0:-0.45827901 1:-1 2:-0.77705346 3:-0.90971317 4:-0.76694915 5:1 6:-0.51043025 7:-0.9791395 
-44.32873674158765 -49 0:-0.49419712 1:-1 2:-0.80252901 3:-0.89191062 4:-0.76961718 5:1 6:-0.56833535 7:-0.98614239 
-49 -45.27992520378798 0:-0.48008172 1:-1 2:-0.79502894 3:-0.89785495 4:-0.7671093 5:1 6:-0.55635002 7:-0.98433776 
-15.80018768464242 -0 0:-0.42634373 1:-1 2:-0.76045123 3:-0.91572661 4:-0.75049768 5:1 6:-0.46516257 7:-0.98606503 
-0 -11.10802518679469 0:-0.48175832 1:-1 2:-0.78964229 3:-0.86794803 4:-0.7665065 5:1 6:-0.52767396 7:-0.97401673 
-0 -49 0:-0.4704407 1:-1 2:-0.79684701 3:-0.87782157 4:-0.76961662 5:1 6:-0.51451093 7:-0.9867431 
-0 -39.7158566974462 0:-0.46708573 1:-1 2:-0.79395844 3:-0.8784704 4:-0.76811594 5:1 6:-0.51178628 7:-0.9877772 
