svm_type c_svc
kernel_type rbf
gamma 5.2
nr_class 3
total_sv 98
rho -0.872514 -0.358527 0.734157
label 1 2 3
nr_sv 36 21 41
SV
8.004869486379377 9.339248413128631 0:-0.34358752 1:-1 2:-0.72573657 3:-0.91724437 4:-0.70103986 5:1 6:-0.25563258 7:-0.9965338 
0 29 0:-0.41342756 1:-0.99962805 2:-0.74409522 3:-0.94420681 4:-0.73070485 5:1 6:-0.34164032 7:-1 
0 29 0:-0.43240343 1:-0.99928469 2:-0.74928469 3:-0.95028612 4:-0.73819742 5:1 6:-0.36516452 7:-1 
29 29 0:-0.44869073 1:-0.99646143 2:-0.75088464 3:-0.94338287 4:-0.73991507 5:1 6:-0.37438075 7:-1 
0 29 0:-0.46644845 1:-1 2:-0.75319149 3:-0.93289689 4:-0.75253682 5:1 6:-0.47561375 7:-0.97479542 
29 29 0:-0.46584053 1:-1 2:-0.75444318 3:-0.93347465 4:-0.75379097 5:1 6:-0.47301484 7:-0.97782488 
29 29 0:-0.46664487 1:-1 2:-0.75866579 3:-0.92838457 4:-0.75539568 5:1 6:-0.47874428 7:-0.97482014 
13.96127765167191 29 0:-0.50067751 1:-1 2:-0.76490515 3:-0.92344173 4:-0.76151762 5:1 6:-0.53726287 7:-0.9796748 
0 29 0:-0.48899266 1:-1 2:-0.76117412 3:-0.93195464 4:-0.760507 5:1 6:-0.52201468 7:-0.97798532 
0 29 0:-0.48428928 1:-1 2:-0.76159601 3:-0.93150457 4:-0.7605985 5:1 6:-0.50955943 7:-0.97971737 
24.14068269375991 29 0:-0.47439934 1:-1 2:-0.75973488 3:-0.92974316 4:-0.75675228 5:1 6:-0.49229495 7:-0.97580779 
29 29 0:-0.43297822 1:-1 2:-0.72523454 3:-0.93830498 4:-0.74208936 5:1 6:-0.43806647 7:-0.98091907 
26.28046097976937 29 0:-0.43614458 1:-1 2:-0.72080321 3:-0.94923695 4:-0.74618474 5:1 6:-0.44032129 7:-0.98939759 
0 29 0:-0.45024916 1:-1 2:-0.73444784 3:-0.94438193 4:-0.74955795 5:1 6:-0.45732197 7:-0.98681884 
0 29 0:-0.43424479 1:-1 2:-0.71289062 3:-0.95540365 4:-0.74707031 5:1 6:-0.44075521 7:-0.99707031 
29 29 0:-0.4520021 1:-1 2:-0.74995629 3:-0.93425424 4:-0.74610946 5:1 6:-0.39569855 7:-0.99930058 
29 29 0:-0.43908503 1:-0.99734792 2:-0.735455 3:-0.94264877 4:-0.75269352 5:1 6:-0.38073927 7:-1 
29 29 0:-0.44207723 1:-1 2:-0.73268975 3:-0.93541944 4:-0.75 5:1 6:-0.38482024 7:-0.99334221 
6.88882878590069 29 0:-0.43457649 1:-1 2:-0.76390645 3:-0.93299621 4:-0.75821745 5:1 6:-0.45764855 7:-0.99051833 
0 29 0:-0.43867999 1:-1 2:-0.77122005 3:-0.93717277 4:-0.7623354 5:1 6:-0.46025702 7:-0.99397112 
29 29 0:-0.43587302 1:-1 2:-0.76698413 3:-0.92984127 4:-0.75746032 5:1 6:-0.45777778 7:-0.98825397 
29 29 0:-0.43759924 1:-1 2:-0.76532232 3:-0.92950143 4:-0.7573833 5:1 6:-0.45982852 7:-0.98793268 
0 29 0:-0.44249513 1:-1 2:-0.76348278 3:-0.93079922 4:-0.75730994 5:1 6:-0.47076023 7:-0.98050682 
0 29 0:-0.42674742 1:-1 2:-0.75151416 3:-0.93419545 4:-0.7528237 5:1 6:-0.45915862 7:-0.98330332 
0 29 0:-0.4330167 1:-1 2:-0.75401245 3:-0.92924992 4:-0.75302981 5:1 6:-0.46609892 7:-0.98100229 
0 29 0:-0.41995054 1:-1 2:-0.74773289 3:-0.92943116 4:-0.7493817 5:1 6:-0.45523495 7:-0.98186315 
7.723880402518764 29 0:-0.42061006 1:-1 2:-0.74872218 3:-0.92844188 4:-0.74971146 5:1 6:-0.456554 7:-0.98153339 
29 29 0:-0.3890785 1:-1 2:-0.73208191 3:-0.93139932 4:-0.73856655 5:1 6:-0.42866894 7:-0.98395904 
29 29 0:-0.47227067 1:-1 2:-0.78932682 3:-0.88908266 4:-0.7704918 5:1 6:-0.52807813 7:-0.98569934 
29 29 0:-0.45387945 1:-1 2:-0.78354978 3:-0.9000999 4:-0.76523477 5:1 6:-0.51148851 7:-0.98434898 
29 29 0:-0.45038927 1:-1 2:-0.77902932 3:-0.90458837 4:-0.76312738 5:1 6:-0.50472089 7:-0.98409806 
29 29 0:-0.45084409 1:-1 2:-0.7795432 3:-0.90731546 4:-0.76299239 5:1 6:-0.50347567 7:-0.98510427 
29 29 0:-0.44438936 1:-1 2:-0.78020162 3:-0.89919022 4:-0.76070071 5:1 6:-0.4989258 7:-0.98413485 
29 29 0:-0.43459638 1:-1 2:-0.76968699 3:-0.90510708 4:-0.75551895 5:1 6:-0.48434926 7:-0.98385502 
29 29 0:-0.4482075 1:-1 2:-0.77829176 3:-0.90219726 4:-0.76111019 5:1 6:-0.49611763 7:-0.98447051 
29 29 0:-0.4158064 1:-1 2:-0.75731934 3:-0.91301405 4:-0.74716534 5:1 6:-0.46522254 7:-0.98612286 
-29 29 0:-0.39395929 1:-0.99277741 2:-0.70420223 3:-0.95600788 4:-0.74162837 5:1 6:-0.40479317 7:-1 
-29 29 0:-0.3761745 1:-0.99261745 2:-0.69563758 3:-0.95067114 4:-0.73355705 5:1 6:-0.38557047 7:-1 
-29 29 0:-0.45261058 1:-1 2:-0.73761224 3:-0.92783505 4:-0.75324243 5:1 6:-0.39840372 7:-0.98603259 
-29 29 0:-0.43834063 1:-1 2:-0.72743478 3:-0.94457948 4:-0.75465889 5:1 6:-0.3842165 7:-0.99675903 
-29 29 0:-0.46386155 1:-1 2:-0.74855786 3:-0.91720394 4:-0.7478792 5:1 6:-0.41194435 7:-0.97896166 
-29 29 0:-0.45760475 1:-1 2:-0.74364896 3:-0.92411745 4:-0.74925767 5:1 6:-0.41372484 7:-0.98020455 
-29 29 0:-0.45099306 1:-1 2:-0.73066365 3:-0.93088971 4:-0.74874859 5:1 6:-0.40933312 7:-0.98385274 
-29 29 0:-0.45273632 1:-1 2:-0.78109453 3:-0.91847216 4:-0.76215696 5:1 6:-0.47584657 7:-0.98587707 
-29 29 0:-0.45512923 1:-1 2:-0.77973993 3:-0.91395087 4:-0.76175951 5:1 6:-0.47696259 7:-0.98523037 
-29 29 0:-0.44698545 1:-1 2:-0.77450824 3:-0.91715976 4:-0.75819607 5:1 6:-0.47193347 7:-0.98368783 
-29 29 0:-0.45035234 1:-1 2:-0.77610506 3:-0.91639974 4:-0.75944907 5:1 6:-0.47501602 7:-0.98558616 
-29 29 0:-0.4922494 1:-1 2:-0.79331726 3:-0.91594902 4:-0.76782639 5:1 6:-0.54598691 7:-0.9927661 
-29 29 0:-0.48451825 1:-1 2:-0.7920775 3:-0.91108805 4:-0.76543851 5:1 6:-0.53191489 7:-0.98962117 
-29 29 0:-0.47559082 1:-1 2:-0.78678627 3:-0.91029843 4:-0.76401587 5:1 6:-0.52147663 7:-0.98964982 
-29 29 0:-0.41270369 1:-1 2:-0.74359827 3:-0.92949784 4:-0.74625873 5:1 6:-0.44828733 7:-0.9820419 
-29 29 0:-0.42866503 1:-1 2:-0.75233415 3:-0.92760033 4:-0.75298935 5:1 6:-0.46502867 7:-0.98099918 
-29 29 0:-0.4225445 1:-1 2:-0.74686882 3:-0.93012525 4:-0.7495056 5:1 6:-0.45583388 7:-0.98220171 
-29 29 0:-0.44830998 1:-1 2:-0.77873042 3:-0.89480627 4:-0.76026381 5:1 6:-0.49216818 7:-0.98252267 
-29 29 0:-0.44600165 1:-1 2:-0.77642209 3:-0.90107172 4:-0.75993405 5:1 6:-0.4928277 7:-0.98384171 
-29 29 0:-0.44608249 1:-1 2:-0.77439125 3:-0.90425708 4:-0.75848932 5:1 6:-0.49146927 7:-0.98343548 
-29 29 0:-0.43618606 1:-1 2:-0.77056779 3:-0.90531369 4:-0.75500745 5:1 6:-0.48352922 7:-0.98344645 
-18.77947527582364 -0 0:-0.40340633 1:-0.99837794 2:-0.72879157 3:-0.95036496 4:-0.74566099 5:1 6:-0.41411192 7:-1 
-29 -3.850914241290778 0:-0.4181934 1:-1 2:-0.74605703 3:-0.94647124 4:-0.75274813 5:1 6:-0.42520312 7:-0.99872551 
-29 -29 0:-0.41694591 1:-1 2:-0.74629009 3:-0.94574757 4:-0.75075794 5:1 6:-0.42332855 7:-0.99648955 
-29 -0 0:-0.4144779 1:-1 2:-0.74471493 3:-0.94650865 4:-0.75176169 5:1 6:-0.42088405 7:-0.99679693 
-29 -29 0:-0.4330336 1:-1 2:-0.75548194 3:-0.9384761 4:-0.75232687 5:1 6:-0.4415523 7:-0.98864174 
-29 -29 0:-0.41590613 1:-1 2:-0.75 3:-0.94361147 4:-0.74869622 5:1 6:-0.43578879 7:-0.99934811 
-29 -0 0:-0.41289796 1:-0.99967347 2:-0.74334694 3:-0.94514286 4:-0.74922449 5:1 6:-0.43379592 7:-1 
-29 -0 0:-0.4268589 1:-1 2:-0.7498785 3:-0.94038555 4:-0.75182245 5:1 6:-0.44824235 7:-0.99838004 
-29 -0 0:-0.43522655 1:-1 2:-0.70995533 3:-0.94830887 4:-0.75047862 5:1 6:-0.39374601 7:-0.99617103 
-29 -29 0:-0.44238976 1:-1 2:-0.72372372 3:-0.93867552 4:-0.75343765 5:1 6:-0.40888257 7:-0.99020073 
-7.553487806223478 -0 0:-0.42870677 1:-1 2:-0.71040581 3:-0.94378652 4:-0.75082899 5:1 6:-0.39586294 7:-0.99526291 
-29 -29 0:-0.45236955 1:-1 2:-0.73671613 3:-0.92659965 4:-0.75363013 5:1 6:-0.42109462 7:-0.98372427 
-29 -29 0:-0.44425278 1:-1 2:-0.72463541 3:-0.93194292 4:-0.75286185 5:1 6:-0.41571272 7:-0.98745492 
-29 -29 0:-0.44533333 1:-1 2:-0.728 3:-0.92784314 4:-0.75309804 5:1 6:-0.42117647 7:-0.98431373 
-29 -11.17018779101251 0:-0.43765664 1:-1 2:-0.72368421 3:-0.93076441 4:-0.75156642 5:1 6:-0.41478697 7:-0.98715539 
-29 -29 0:-0.44021397 1:-1 2:-0.72655758 3:-0.92920076 4:-0.75047199 5:1 6:-0.41378225 7:-0.98867212 
-29 -0 0:-0.43463231 1:-1 2:-0.71904463 3:-0.93746072 4:-0.74984287 5:1 6:-0.41011942 7:-0.99151477 
-29 -29 0:-0.4419259 1:-1 2:-0.72768485 3:-0.93403158 4:-0.75269658 5:1 6:-0.42285446 7:-0.98937002 
-29 -0 0:-0.45082095 1:-1 2:-0.72916341 3:-0.93713839 4:-0.75574668 5:1 6:-0.43299453 7:-0.98936669 
-29 -0 0:-0.44218532 1:-1 2:-0.71379792 3:-0.95064411 4:-0.75632469 5:1 6:-0.43007916 7:-0.99627503 
-29 -29 0:-0.44583961 1:-1 2:-0.76527708 3:-0.9290139 4:-0.75355768 5:1 6:-0.47195714 7:-0.98191863 
-0 -22.1785776137141 0:-0.3620124 1:-1 2:-0.71563981 3:-0.93875319 4:-0.72584761 5:1 6:-0.39154211 7:-0.98942763 
-29 -29 0:-0.45205479 1:-1 2:-0.77079853 3:-0.91881056 4:-0.75676579 5:1 6:-0.48045439 7:-0.98028734 
-29 -29 0:-0.44085305 1:-1 2:-0.76274575 3:-0.93068977 4:-0.75574808 5:1 6:-0.47084305 7:-0.98267244 
-29 -29 0:-0.45022288 1:-1 2:-0.77282483 3:-0.91679049 4:-0.75862638 5:1 6:-0.48126135 7:-0.97952782 
-29 -29 0:-0.44829854 1:-1 2:-0.77182311 3:-0.91681736 4:-0.75932928 5:1 6:-0.47854677 7:-0.98027289 
-29 -29 0:-0.45008183 1:-1 2:-0.77348609 3:-0.92274959 4:-0.7613748 5:1 6:-0.47855974 7:-0.98101473 
-29 -0 0:-0.45974196 1:-1 2:-0.77494692 3:-0.90854156 4:-0.76547444 5:1 6:-0.50775764 7:-0.97746203 
-29 -0 0:-0.41672263 1:-1 2:-0.75050369 3:-0.92545332 4:-0.74949631 5:1 6:-0.46507723 7:-0.98321021 
-29 -29 0:-0.49419712 1:-1 2:-0.80252901 3:-0.89191062 4:-0.76961718 5:1 6:-0.56833535 7:-0.98614239 
-29 -18.34407812653379 0:-0.48008172 1:-1 2:-0.79502894 3:-0.89785495 4:-0.7671093 5:1 6:-0.55635002 7:-0.98433776 
-29 -0 0:-0.46955937 1:-1 2:-0.78809284 3:-0.90110999 4:-0.76421123 5:1 6:-0.54490414 7:-0.98284561 
-15.19579069506207 -0 0:-0.46581124 1:-1 2:-0.79030897 3:-0.89566098 4:-0.76464629 5:1 6:-0.54043559 7:-0.981766 
-29 -0 0:-0.45943239 1:-1 2:-0.7903172 3:-0.90050083 4:-0.76560935 5:1 6:-0.52687813 7:-0.98397329 
-29 -0 0:-0.45775704 1:-1 2:-0.79070155 3:-0.90134978 4:-0.76570572 5:1 6:-0.5214131 7:-0.98466922 
-0 -8.907162773240939 0:-0.43811189 1:-1 2:-0.79685315 3:-0.88321678 4:-0.76153846 5:1 6:-0.49685315 7:-0.99300699 
-29 -0 0:-0.43529799 1:-1 2:-0.77214356 3:-0.90681594 4:-0.75732631 5:1 6:-0.48435957 7:-0.98485347 
-29 -2.5076349934083 0:-0.42634373 1:-1 2:-0.76045123 3:-0.91572661 4:-0.75049768 5:1 6:-0.46516257 7:-0.98606503 
-25.81049463601945 -29 0:-0.47734686 1:-1 2:-0.80137731 3:-0.88256615 4:-0.7709315 5:1 6:-0.51576658 7:-0.98803914 
-0 -25.50320169463943 0:-0.4704407 1:-1 2:-0.79684701 3:-0.87782157 4:-0.76961662 5:1 6:-0.51451093 7:-0.9867431 
-0 -23.53824276616017 0:-0.4270048 1:-1 2:-0.77861549 3:-0.88622344 4:-0.74982865 5:1 6:-0.48355038 7:-0.98149417 
