svm_type c_svc
kernel_type rbf
gamma 6
nr_class 3
total_sv 94
rho -0.203288 -0.441285 0.203421
label 1 2 3
nr_sv 35 21 38
SV
13.94602594407273 0.3339943433129984 0:-0.34358752 1:-1 2:-0.72573657 3:-0.91724437 4:-0.70103986 5:1 6:-0.25563258 7:-0.9965338 
0 39 0:-0.41342756 1:-0.99962805 2:-0.74409522 3:-0.94420681 4:-0.73070485 5:1 6:-0.34164032 7:-1 
0 37.89440701647639 0:-0.43240343 1:-0.99928469 2:-0.74928469 3:-0.95028612 4:-0.73819742 5:1 6:-0.36516452 7:-1 
11.14904864906766 0 0:-0.44869073 1:-0.99646143 2:-0.75088464 3:-0.94338287 4:-0.73991507 5:1 6:-0.37438075 7:-1 
0 39 0:-0.46644845 1:-1 2:-0.75319149 3:-0.93289689 4:-0.75253682 5:1 6:-0.47561375 7:-0.97479542 
0 39 0:-0.46584053 1:-1 2:-0.75444318 3:-0.93347465 4:-0.75379097 5:1 6:-0.47301484 7:-0.97782488 
39 39 0:-0.46280033 1:-1 2:-0.75708368 3:-0.92676056 4:-0.75277548 5:1 6:-0.47274234 7:-0.97547639 
28.22825460787102 39 0:-0.46664487 1:-1 2:-0.75866579 3:-0.92838457 4:-0.75539568 5:1 6:-0.47874428 7:-0.97482014 
39 39 0:-0.50067751 1:-1 2:-0.76490515 3:-0.92344173 4:-0.76151762 5:1 6:-0.53726287 7:-0.9796748 
12.23332916023843 39 0:-0.48428928 1:-1 2:-0.76159601 3:-0.93150457 4:-0.7605985 5:1 6:-0.50955943 7:-0.97971737 
39 39 0:-0.43297822 1:-1 2:-0.72523454 3:-0.93830498 4:-0.74208936 5:1 6:-0.43806647 7:-0.98091907 
39 39 0:-0.43614458 1:-1 2:-0.72080321 3:-0.94923695 4:-0.74618474 5:1 6:-0.44032129 7:-0.98939759 
0 39 0:-0.45024916 1:-1 2:-0.73444784 3:-0.94438193 4:-0.74955795 5:1 6:-0.45732197 7:-0.98681884 
39 39 0:-0.43424479 1:-1 2:-0.71289062 3:-0.95540365 4:-0.74707031 5:1 6:-0.44075521 7:-0.99707031 
39 39 0:-0.4520021 1:-1 2:-0.74995629 3:-0.93425424 4:-0.74610946 5:1 6:-0.39569855 7:-0.99930058 
39 39 0:-0.44139902 1:-0.99663696 2:-0.73768287 3:-0.94316462 4:-0.74978981 5:1 6:-0.38355473 7:-1 
39 39 0:-0.43908503 1:-0.99734792 2:-0.735455 3:-0.94264877 4:-0.75269352 5:1 6:-0.38073927 7:-1 
39 39 0:-0.44207723 1:-1 2:-0.73268975 3:-0.93541944 4:-0.75 5:1 6:-0.38482024 7:-0.99334221 
39 39 0:-0.43457649 1:-1 2:-0.76390645 3:-0.93299621 4:-0.75821745 5:1 6:-0.45764855 7:-0.99051833 
26.21486930101869 39 0:-0.43867999 1:-1 2:-0.77122005 3:-0.93717277 4:-0.7623354 5:1 6:-0.46025702 7:-0.99397112 
39 39 0:-0.43587302 1:-1 2:-0.76698413 3:-0.92984127 4:-0.75746032 5:1 6:-0.45777778 7:-0.98825397 
39 39 0:-0.43759924 1:-1 2:-0.76532232 3:-0.92950143 4:-0.7573833 5:1 6:-0.45982852 7:-0.98793268 
0 39 0:-0.44558656 1:-1 2:-0.76407244 3:-0.92853647 4:-0.75656714 5:1 6:-0.47234459 7:-0.97846304 
0 39 0:-0.44249513 1:-1 2:-0.76348278 3:-0.93079922 4:-0.75730994 5:1 6:-0.47076023 7:-0.98050682 
0 39 0:-0.42674742 1:-1 2:-0.75151416 3:-0.93419545 4:-0.7528237 5:1 6:-0.45915862 7:-0.98330332 
0 39 0:-0.4330167 1:-1 2:-0.75401245 3:-0.92924992 4:-0.75302981 5:1 6:-0.46609892 7:-0.98100229 
9.519030224820602 39 0:-0.41995054 1:-1 2:-0.74773289 3:-0.92943116 4:-0.7493817 5:1 6:-0.45523495 7:-0.98186315 
0 39 0:-0.42061006 1:-1 2:-0.74872218 3:-0.92844188 4:-0.74971146 5:1 6:-0.456554 7:-0.98153339 
39 39 0:-0.3890785 1:-1 2:-0.73208191 3:-0.93139932 4:-0.73856655 5:1 6:-0.42866894 7:-0.98395904 
39 39 0:-0.47227067 1:-1 2:-0.78932682 3:-0.88908266 4:-0.7704918 5:1 6:-0.52807813 7:-0.98569934 
39 39 0:-0.45387945 1:-1 2:-0.78354978 3:-0.9000999 4:-0.76523477 5:1 6:-0.51148851 7:-0.98434898 
39 39 0:-0.45038927 1:-1 2:-0.77902932 3:-0.90458837 4:-0.76312738 5:1 6:-0.50472089 7:-0.98409806 
39 39 0:-0.44438936 1:-1 2:-0.78020162 3:-0.89919022 4:-0.76070071 5:1 6:-0.4989258 7:-0.98413485 
39 39 0:-0.43459638 1:-1 2:-0.76968699 3:-0.90510708 4:-0.75551895 5:1 6:-0.48434926 7:-0.98385502 
15.70944211291084 39 0:-0.4158064 1:-1 2:-0.75731934 3:-0.91301405 4:-0.74716534 5:1 6:-0.46522254 7:-0.98612286 
-39 39 0:-0.39395929 1:-0.99277741 2:-0.70420223 3:-0.95600788 4:-0.74162837 5:1 6:-0.40479317 7:-1 
-39 39 0:-0.3761745 1:-0.99261745 2:-0.69563758 3:-0.95067114 4:-0.73355705 5:1 6:-0.38557047 7:-1 
-39 39 0:-0.41041767 1:-0.99580713 2:-0.71649734 3:-0.95258829 4:-0.7464925 5:1 6:-0.41848089 7:-1 
-39 39 0:-0.42319949 1:-1 2:-0.72657744 3:-0.94996813 4:-0.75047801 5:1 6:-0.4318037 7:-0.9987253 
-39 39 0:-0.45261058 1:-1 2:-0.73761224 3:-0.92783505 4:-0.75324243 5:1 6:-0.39840372 7:-0.98603259 
-39 39 0:-0.43834063 1:-1 2:-0.72743478 3:-0.94457948 4:-0.75465889 5:1 6:-0.3842165 7:-0.99675903 
-39 39 0:-0.46386155 1:-1 2:-0.74855786 3:-0.91720394 4:-0.7478792 5:1 6:-0.41194435 7:-0.97896166 
-39 39 0:-0.46289982 1:-1 2:-0.74443903 3:-0.93602858 4:-0.75288196 5:1 6:-0.41581426 7:-0.98603669 
-39 39 0:-0.45760475 1:-1 2:-0.74364896 3:-0.92411745 4:-0.74925767 5:1 6:-0.41372484 7:-0.98020455 
-39 39 0:-0.45273632 1:-1 2:-0.78109453 3:-0.91847216 4:-0.76215696 5:1 6:-0.47584657 7:-0.98587707 
-39 39 0:-0.45512923 1:-1 2:-0.77973993 3:-0.91395087 4:-0.76175951 5:1 6:-0.47696259 7:-0.98523037 
-39 39 0:-0.44698545 1:-1 2:-0.77450824 3:-0.91715976 4:-0.75819607 5:1 6:-0.47193347 7:-0.98368783 
-39 39 0:-0.45035234 1:-1 2:-0.77610506 3:-0.91639974 4:-0.75944907 5:1 6:-0.47501602 7:-0.98558616 
-39 39 0:-0.51016081 1:-1 2:-0.80314543 3:-0.90952465 4:-0.7695706 5:1 6:-0.56352712 7:-0.99328503 
-39 39 0:-0.48451825 1:-1 2:-0.7920775 3:-0.91108805 4:-0.76543851 5:1 6:-0.53191489 7:-0.98962117 
-39 39 0:-0.47559082 1:-1 2:-0.78678627 3:-0.91029843 4:-0.76401587 5:1 6:-0.52147663 7:-0.98964982 
-39 39 0:-0.41270369 1:-1 2:-0.74359827 3:-0.92949784 4:-0.74625873 5:1 6:-0.44828733 7:-0.9820419 
-39 39 0:-0.42866503 1:-1 2:-0.75233415 3:-0.92760033 4:-0.75298935 5:1 6:-0.46502867 7:-0.98099918 
-39 39 0:-0.4225445 1:-1 2:-0.74686882 3:-0.93012525 4:-0.7495056 5:1 6:-0.45583388 7:-0.98220171 
-39 39 0:-0.44600165 1:-1 2:-0.77642209 3:-0.90107172 4:-0.75993405 5:1 6:-0.4928277 7:-0.98384171 
-39 39 0:-0.44608249 1:-1 2:-0.77439125 3:-0.90425708 4:-0.75848932 5:1 6:-0.49146927 7:-0.98343548 
-0 -26.98268170158287 0:-0.40340633 1:-0.99837794 2:-0.72879157 3:-0.95036496 4:-0.74566099 5:1 6:-0.41411192 7:-1 
-39 -2.322995903101356 0:-0.4181934 1:-1 2:-0.74605703 3:-0.94647124 4:-0.75274813 5:1 6:-0.42520312 7:-0.99872551 
-39 -38.23397985096704 0:-0.41694591 1:-1 2:-0.74629009 3:-0.94574757 4:-0.75075794 5:1 6:-0.42332855 7:-0.99648955 
-39 -0 0:-0.4144779 1:-1 2:-0.74471493 3:-0.94650865 4:-0.75176169 5:1 6:-0.42088405 7:-0.99679693 
-39 -39 0:-0.4330336 1:-1 2:-0.75548194 3:-0.9384761 4:-0.75232687 5:1 6:-0.4415523 7:-0.98864174 
-39 -39 0:-0.44936306 1:-1 2:-0.77197452 3:-0.92834395 4:-0.75573248 5:1 6:-0.46210191 7:-0.98980892 
-39 -0 0:-0.41590613 1:-1 2:-0.75 3:-0.94361147 4:-0.74869622 5:1 6:-0.43578879 7:-0.99934811 
-39 -0 0:-0.41289796 1:-0.99967347 2:-0.74334694 3:-0.94514286 4:-0.74922449 5:1 6:-0.43379592 7:-1 
-39 -39 0:-0.41597527 1:-0.99707174 2:-0.74296405 3:-0.94176021 4:-0.7484952 5:1 6:-0.43679844 7:-1 
-39 -3.370615713721749 0:-0.4268589 1:-1 2:-0.7498785 3:-0.94038555 4:-0.75182245 5:1 6:-0.44824235 7:-0.99838004 
-39 -39 0:-0.43522655 1:-1 2:-0.70995533 3:-0.94830887 4:-0.75047862 5:1 6:-0.39374601 7:-0.99617103 
-39 -39 0:-0.44238976 1:-1 2:-0.72372372 3:-0.93867552 4:-0.75343765 5:1 6:-0.40888257 7:-0.99020073 
-39 -39 0:-0.45236955 1:-1 2:-0.73671613 3:-0.92659965 4:-0.75363013 5:1 6:-0.42109462 7:-0.98372427 
-39 -39 0:-0.44533333 1:-1 2:-0.728 3:-0.92784314 4:-0.75309804 5:1 6:-0.42117647 7:-0.98431373 
-39 -16.67834674734392 0:-0.43765664 1:-1 2:-0.72368421 3:-0.93076441 4:-0.75156642 5:1 6:-0.41478697 7:-0.98715539 
-39 -39 0:-0.44021397 1:-1 2:-0.72655758 3:-0.92920076 4:-0.75047199 5:1 6:-0.41378225 7:-0.98867212 
-39 -39 0:-0.43463231 1:-1 2:-0.71904463 3:-0.93746072 4:-0.74984287 5:1 6:-0.41011942 7:-0.99151477 
-39 -0 0:-0.43432137 1:-1 2:-0.71170047 3:-0.950078 4:-0.75382215 5:1 6:-0.42152886 7:-0.9975039 
-39 -0 0:-0.44218532 1:-1 2:-0.71379792 3:-0.95064411 4:-0.75632469 5:1 6:-0.43007916 7:-0.99627503 
-6.435863576522285 -6.181623039488837 0:-0.42448726 1:-0.99782474 2:-0.70478558 3:-0.9533872 4:-0.75077688 5:1 6:-0.41858297 7:-1 
-39 -39 0:-0.46542972 1:-1 2:-0.79205321 3:-0.90757921 4:-0.75949589 5:1 6:-0.49938736 7:-0.98774724 
-39 -39 0:-0.46379045 1:-1 2:-0.78394111 3:-0.91508303 4:-0.76065742 5:1 6:-0.49700394 7:-0.98459168 
-39 -39 0:-0.46393862 1:-1 2:-0.77936914 3:-0.91372549 4:-0.75754476 5:1 6:-0.49224211 7:-0.97988065 
-39 -39 0:-0.44583961 1:-1 2:-0.76527708 3:-0.9290139 4:-0.75355768 5:1 6:-0.47195714 7:-0.98191863 
-39 -0 0:-0.42380952 1:-1 2:-0.75068027 3:-0.93537415 4:-0.74659864 5:1 6:-0.44931973 7:-0.98469388 
-0 -39 0:-0.3620124 1:-1 2:-0.71563981 3:-0.93875319 4:-0.72584761 5:1 6:-0.39154211 7:-0.98942763 
-39 -0 0:-0.4430759 1:-1 2:-0.76298269 3:-0.92509987 4:-0.75499334 5:1 6:-0.47270306 7:-0.97969374 
-39 -39 0:-0.45387945 1:-1 2:-0.77455877 3:-0.91308691 4:-0.76023976 5:1 6:-0.48684649 7:-0.97968698 
-39 -39 0:-0.45022288 1:-1 2:-0.77282483 3:-0.91679049 4:-0.75862638 5:1 6:-0.48126135 7:-0.97952782 
-39 -11.4832601687402 0:-0.44829854 1:-1 2:-0.77182311 3:-0.91681736 4:-0.75932928 5:1 6:-0.47854677 7:-0.98027289 
-39 -0 0:-0.45827901 1:-1 2:-0.77705346 3:-0.90971317 4:-0.76694915 5:1 6:-0.51043025 7:-0.9791395 
-12.25297786954055 -39 0:-0.49419712 1:-1 2:-0.80252901 3:-0.89191062 4:-0.76961718 5:1 6:-0.56833535 7:-0.98614239 
-39 -21.19298052564487 0:-0.48008172 1:-1 2:-0.79502894 3:-0.89785495 4:-0.7671093 5:1 6:-0.55635002 7:-0.98433776 
-39 -0 0:-0.46955937 1:-1 2:-0.78809284 3:-0.90110999 4:-0.76421123 5:1 6:-0.54490414 7:-0.98284561 
-36.48022987069957 -0 0:-0.42424242 1:-1 2:-0.76123876 3:-0.91441891 4:-0.75158175 5:1 6:-0.46786547 7:-0.98734599 
-39 -0 0:-0.42634373 1:-1 2:-0.76045123 3:-0.91572661 4:-0.75049768 5:1 6:-0.46516257 7:-0.98606503 
-22.05933004302702 -0 0:-0.48175832 1:-1 2:-0.78964229 3:-0.86794803 4:-0.7665065 5:1 6:-0.52767396 7:-0.97401673 
-0 -29.5535163494091 0:-0.47734686 1:-1 2:-0.80137731 3:-0.88256615 4:-0.7709315 5:1 6:-0.51576658 7:-0.98803914 
