svm_type c_svc
kernel_type rbf
gamma 0.2
nr_class 3
total_sv 99
rho -0.809191 0.950728 0.818658
label 1 2 3
nr_sv 32 25 42
SV
35 35 0:-0.41342756 1:-0.99962805 2:-0.74409522 3:-0.94420681 4:-0.73070485 5:1 6:-0.34164032 7:-1 
33.93668674073162 35 0:-0.43240343 1:-0.99928469 2:-0.74928469 3:-0.95028612 4:-0.73819742 5:1 6:-0.36516452 7:-1 
0 35 0:-0.46644845 1:-1 2:-0.75319149 3:-0.93289689 4:-0.75253682 5:1 6:-0.47561375 7:-0.97479542 
0 35 0:-0.46584053 1:-1 2:-0.75444318 3:-0.93347465 4:-0.75379097 5:1 6:-0.47301484 7:-0.97782488 
35 35 0:-0.46280033 1:-1 2:-0.75708368 3:-0.92676056 4:-0.75277548 5:1 6:-0.47274234 7:-0.97547639 
8.226906392104558 35 0:-0.46664487 1:-1 2:-0.75866579 3:-0.92838457 4:-0.75539568 5:1 6:-0.47874428 7:-0.97482014 
35 35 0:-0.48899266 1:-1 2:-0.76117412 3:-0.93195464 4:-0.760507 5:1 6:-0.52201468 7:-0.97798532 
35 35 0:-0.48428928 1:-1 2:-0.76159601 3:-0.93150457 4:-0.7605985 5:1 6:-0.50955943 7:-0.97971737 
14.27956564348049 35 0:-0.47439934 1:-1 2:-0.75973488 3:-0.92974316 4:-0.75675228 5:1 6:-0.49229495 7:-0.97580779 
35 35 0:-0.43297822 1:-1 2:-0.72523454 3:-0.93830498 4:-0.74208936 5:1 6:-0.43806647 7:-0.98091907 
34.39874332668258 35 0:-0.43614458 1:-1 2:-0.72080321 3:-0.94923695 4:-0.74618474 5:1 6:-0.44032129 7:-0.98939759 
0 35 0:-0.45024916 1:-1 2:-0.73444784 3:-0.94438193 4:-0.74955795 5:1 6:-0.45732197 7:-0.98681884 
35 35 0:-0.43424479 1:-1 2:-0.71289062 3:-0.95540365 4:-0.74707031 5:1 6:-0.44075521 7:-0.99707031 
35 35 0:-0.44139902 1:-0.99663696 2:-0.73768287 3:-0.94316462 4:-0.74978981 5:1 6:-0.38355473 7:-1 
35 35 0:-0.43908503 1:-0.99734792 2:-0.735455 3:-0.94264877 4:-0.75269352 5:1 6:-0.38073927 7:-1 
35 35 0:-0.44207723 1:-1 2:-0.73268975 3:-0.93541944 4:-0.75 5:1 6:-0.38482024 7:-0.99334221 
35 35 0:-0.43587302 1:-1 2:-0.76698413 3:-0.92984127 4:-0.75746032 5:1 6:-0.45777778 7:-0.98825397 
35 35 0:-0.43759924 1:-1 2:-0.76532232 3:-0.92950143 4:-0.7573833 5:1 6:-0.45982852 7:-0.98793268 
14.15809789700076 35 0:-0.44558656 1:-1 2:-0.76407244 3:-0.92853647 4:-0.75656714 5:1 6:-0.47234459 7:-0.97846304 
0 35 0:-0.44249513 1:-1 2:-0.76348278 3:-0.93079922 4:-0.75730994 5:1 6:-0.47076023 7:-0.98050682 
0 35 0:-0.40632848 1:-1 2:-0.74284279 3:-0.93537586 4:-0.74451699 5:1 6:-0.43981249 7:-0.98392767 
35 35 0:-0.42674742 1:-1 2:-0.75151416 3:-0.93419545 4:-0.7528237 5:1 6:-0.45915862 7:-0.98330332 
35 35 0:-0.4330167 1:-1 2:-0.75401245 3:-0.92924992 4:-0.75302981 5:1 6:-0.46609892 7:-0.98100229 
35 35 0:-0.41995054 1:-1 2:-0.74773289 3:-0.92943116 4:-0.7493817 5:1 6:-0.45523495 7:-0.98186315 
35 35 0:-0.42061006 1:-1 2:-0.74872218 3:-0.92844188 4:-0.74971146 5:1 6:-0.456554 7:-0.98153339 
35 35 0:-0.47227067 1:-1 2:-0.78932682 3:-0.88908266 4:-0.7704918 5:1 6:-0.52807813 7:-0.98569934 
35 35 0:-0.45387945 1:-1 2:-0.78354978 3:-0.9000999 4:-0.76523477 5:1 6:-0.51148851 7:-0.98434898 
35 35 0:-0.45038927 1:-1 2:-0.77902932 3:-0.90458837 4:-0.76312738 5:1 6:-0.50472089 7:-0.98409806 
35 35 0:-0.44438936 1:-1 2:-0.78020162 3:-0.89919022 4:-0.76070071 5:1 6:-0.4989258 7:-0.98413485 
35 35 0:-0.43459638 1:-1 2:-0.76968699 3:-0.90510708 4:-0.75551895 5:1 6:-0.48434926 7:-0.98385502 
35 35 0:-0.4482075 1:-1 2:-0.77829176 3:-0.90219726 4:-0.76111019 5:1 6:-0.49611763 7:-0.98447051 
35 35 0:-0.4158064 1:-1 2:-0.75731934 3:-0.91301405 4:-0.74716534 5:1 6:-0.46522254 7:-0.98612286 
-35 35 0:-0.39395929 1:-0.99277741 2:-0.70420223 3:-0.95600788 4:-0.74162837 5:1 6:-0.40479317 7:-1 
-35 35 0:-0.3761745 1:-0.99261745 2:-0.69563758 3:-0.95067114 4:-0.73355705 5:1 6:-0.38557047 7:-1 
-35 35 0:-0.41041767 1:-0.99580713 2:-0.71649734 3:-0.95258829 4:-0.7464925 5:1 6:-0.41848089 7:-1 
-35 35 0:-0.42319949 1:-1 2:-0.72657744 3:-0.94996813 4:-0.75047801 5:1 6:-0.4318037 7:-0.9987253 
-35 35 0:-0.45261058 1:-1 2:-0.73761224 3:-0.92783505 4:-0.75324243 5:1 6:-0.39840372 7:-0.98603259 
-35 35 0:-0.43834063 1:-1 2:-0.72743478 3:-0.94457948 4:-0.75465889 5:1 6:-0.3842165 7:-0.99675903 
-35 35 0:-0.44643156 1:-1 2:-0.74293833 3:-0.93448103 4:-0.7553067 5:1 6:-0.39361524 7:-0.98729734 
-35 35 0:-0.46289982 1:-1 2:-0.74443903 3:-0.93602858 4:-0.75288196 5:1 6:-0.41581426 7:-0.98603669 
-35 35 0:-0.45760475 1:-1 2:-0.74364896 3:-0.92411745 4:-0.74925767 5:1 6:-0.41372484 7:-0.98020455 
-35 35 0:-0.45099306 1:-1 2:-0.73066365 3:-0.93088971 4:-0.74874859 5:1 6:-0.40933312 7:-0.98385274 
-35 35 0:-0.45273632 1:-1 2:-0.78109453 3:-0.91847216 4:-0.76215696 5:1 6:-0.47584657 7:-0.98587707 
-35 35 0:-0.45512923 1:-1 2:-0.77973993 3:-0.91395087 4:-0.76175951 5:1 6:-0.47696259 7:-0.98523037 
-35 35 0:-0.44698545 1:-1 2:-0.77450824 3:-0.91715976 4:-0.75819607 5:1 6:-0.47193347 7:-0.98368783 
-35 35 0:-0.51016081 1:-1 2:-0.80314543 3:-0.90952465 4:-0.7695706 5:1 6:-0.56352712 7:-0.99328503 
-35 35 0:-0.4922494 1:-1 2:-0.79331726 3:-0.91594902 4:-0.76782639 5:1 6:-0.54598691 7:-0.9927661 
-35 35 0:-0.48451825 1:-1 2:-0.7920775 3:-0.91108805 4:-0.76543851 5:1 6:-0.53191489 7:-0.98962117 
-35 35 0:-0.47559082 1:-1 2:-0.78678627 3:-0.91029843 4:-0.76401587 5:1 6:-0.52147663 7:-0.98964982 
-35 35 0:-0.41270369 1:-1 2:-0.74359827 3:-0.92949784 4:-0.74625873 5:1 6:-0.44828733 7:-0.9820419 
-35 35 0:-0.42866503 1:-1 2:-0.75233415 3:-0.92760033 4:-0.75298935 5:1 6:-0.46502867 7:-0.98099918 
-35 35 0:-0.39611717 1:-1 2:-0.73262943 3:-0.93051771 4:-0.74012262 5:1 6:-0.43290191 7:-0.98297003 
-35 35 0:-0.4225445 1:-1 2:-0.74686882 3:-0.93012525 4:-0.7495056 5:1 6:-0.45583388 7:-0.98220171 
-35 35 0:-0.44830998 1:-1 2:-0.77873042 3:-0.89480627 4:-0.76026381 5:1 6:-0.49216818 7:-0.98252267 
-35 35 0:-0.44600165 1:-1 2:-0.77642209 3:-0.90107172 4:-0.75993405 5:1 6:-0.4928277 7:-0.98384171 
-35 35 0:-0.44608249 1:-1 2:-0.77439125 3:-0.90425708 4:-0.75848932 5:1 6:-0.49146927 7:-0.98343548 
-35 35 0:-0.43618606 1:-1 2:-0.77056779 3:-0.90531369 4:-0.75500745 5:1 6:-0.48352922 7:-0.98344645 
-35 -35 0:-0.40340633 1:-0.99837794 2:-0.72879157 3:-0.95036496 4:-0.74566099 5:1 6:-0.41411192 7:-1 
-35 -0 0:-0.4181934 1:-1 2:-0.74605703 3:-0.94647124 4:-0.75274813 5:1 6:-0.42520312 7:-0.99872551 
-35 -35 0:-0.4330336 1:-1 2:-0.75548194 3:-0.9384761 4:-0.75232687 5:1 6:-0.4415523 7:-0.98864174 
-35 -31.87388861994923 0:-0.41289796 1:-0.99967347 2:-0.74334694 3:-0.94514286 4:-0.74922449 5:1 6:-0.43379592 7:-1 
-35 -35 0:-0.41597527 1:-0.99707174 2:-0.74296405 3:-0.94176021 4:-0.7484952 5:1 6:-0.43679844 7:-1 
-35 -35 0:-0.4323226 1:-1 2:-0.75085964 3:-0.93591747 4:-0.75211003 5:1 6:-0.44451391 7:-0.99374805 
-0 -35 0:-0.38727547 1:-0.99764982 2:-0.73476582 3:-0.94460299 4:-0.74315931 5:1 6:-0.40574114 7:-1 
-0 -35 0:-0.43522655 1:-1 2:-0.70995533 3:-0.94830887 4:-0.75047862 5:1 6:-0.39374601 7:-0.99617103 
-35 -34.59748664188601 0:-0.4445149 1:-1 2:-0.72098922 3:-0.94197844 4:-0.75332911 5:1 6:-0.40678503 7:-0.99207356 
-0 -0.2071368557678688 0:-0.42870677 1:-1 2:-0.71040581 3:-0.94378652 4:-0.75082899 5:1 6:-0.39586294 7:-0.99526291 
-35 -35 0:-0.45236955 1:-1 2:-0.73671613 3:-0.92659965 4:-0.75363013 5:1 6:-0.42109462 7:-0.98372427 
-35 -35 0:-0.44425278 1:-1 2:-0.72463541 3:-0.93194292 4:-0.75286185 5:1 6:-0.41571272 7:-0.98745492 
-35 -1.712080115824757 0:-0.44533333 1:-1 2:-0.728 3:-0.92784314 4:-0.75309804 5:1 6:-0.42117647 7:-0.98431373 
-35 -0 0:-0.43765664 1:-1 2:-0.72368421 3:-0.93076441 4:-0.75156642 5:1 6:-0.41478697 7:-0.98715539 
-9.800023232937239 -35 0:-0.44021397 1:-1 2:-0.72655758 3:-0.92920076 4:-0.75047199 5:1 6:-0.41378225 7:-0.98867212 
-33.05852525954506 -22.97434791325877 0:-0.43463231 1:-1 2:-0.71904463 3:-0.93746072 4:-0.74984287 5:1 6:-0.41011942 7:-0.99151477 
-35 -35 0:-0.44687549 1:-1 2:-0.73146545 3:-0.92727845 4:-0.75318747 5:1 6:-0.42515347 7:-0.98835196 
-35 -0 0:-0.4419259 1:-1 2:-0.72768485 3:-0.93403158 4:-0.75269658 5:1 6:-0.42285446 7:-0.98937002 
-35 -0 0:-0.45082095 1:-1 2:-0.72916341 3:-0.93713839 4:-0.75574668 5:1 6:-0.43299453 7:-0.98936669 
-32.20481072822864 -0 0:-0.44218532 1:-1 2:-0.71379792 3:-0.95064411 4:-0.75632469 5:1 6:-0.43007916 7:-0.99627503 
-0 -19.83647998923954 0:-0.42448726 1:-0.99782474 2:-0.70478558 3:-0.9533872 4:-0.75077688 5:1 6:-0.41858297 7:-1 
-35 -35 0:-0.46542972 1:-1 2:-0.79205321 3:-0.90757921 4:-0.75949589 5:1 6:-0.49938736 7:-0.98774724 
-35 -35 0:-0.46379045 1:-1 2:-0.78394111 3:-0.91508303 4:-0.76065742 5:1 6:-0.49700394 7:-0.98459168 
-35 -35 0:-0.46393862 1:-1 2:-0.77936914 3:-0.91372549 4:-0.75754476 5:1 6:-0.49224211 7:-0.97988065 
-35 -35 0:-0.44583961 1:-1 2:-0.76527708 3:-0.9290139 4:-0.75355768 5:1 6:-0.47195714 7:-0.98191863 
-35 -35 0:-0.45205479 1:-1 2:-0.77079853 3:-0.91881056 4:-0.75676579 5:1 6:-0.48045439 7:-0.98028734 
-35 -2.02017412516215 0:-0.44085305 1:-1 2:-0.76274575 3:-0.93068977 4:-0.75574808 5:1 6:-0.47084305 7:-0.98267244 
-35 -35 0:-0.43698038 1:-1 2:-0.75889591 3:-0.93315597 4:-0.75390755 5:1 6:-0.46425008 7:-0.98303957 
-35 -35 0:-0.45387945 1:-1 2:-0.77455877 3:-0.91308691 4:-0.76023976 5:1 6:-0.48684649 7:-0.97968698 
-35 -35 0:-0.45022288 1:-1 2:-0.77282483 3:-0.91679049 4:-0.75862638 5:1 6:-0.48126135 7:-0.97952782 
-35 -16.99564098314824 0:-0.44829854 1:-1 2:-0.77182311 3:-0.91681736 4:-0.75932928 5:1 6:-0.47854677 7:-0.98027289 
-35 -0 0:-0.45008183 1:-1 2:-0.77348609 3:-0.92274959 4:-0.7613748 5:1 6:-0.47855974 7:-0.98101473 
-35 -0 0:-0.41672263 1:-1 2:-0.75050369 3:-0.92545332 4:-0.74949631 5:1 6:-0.46507723 7:-0.98321021 
-13.64352431899711 -32.65965778270215 0:-0.49419712 1:-1 2:-0.80252901 3:-0.89191062 4:-0.76961718 5:1 6:-0.56833535 7:-0.98614239 
-35 -7.550084920141169 0:-0.48008172 1:-1 2:-0.79502894 3:-0.89785495 4:-0.7671093 5:1 6:-0.55635002 7:-0.98433776 
-35 -10.75512887096621 0:-0.46955937 1:-1 2:-0.78809284 3:-0.90110999 4:-0.76421123 5:1 6:-0.54490414 7:-0.98284561 
-23.19506570651301 -0 0:-0.47100472 1:-1 2:-0.7973702 3:-0.89851652 4:-0.76837492 5:1 6:-0.54146999 7:-0.98415374 
-0 -0.803751615434954 0:-0.42581182 1:-1 2:-0.76519567 3:-0.90974188 4:-0.75220649 5:1 6:-0.47277269 7:-0.98634471 
-28.09805075377892 -0 0:-0.42424242 1:-1 2:-0.76123876 3:-0.91441891 4:-0.75158175 5:1 6:-0.46786547 7:-0.98734599 
-0 -20.82767212695968 0:-0.48175832 1:-1 2:-0.78964229 3:-0.86794803 4:-0.7665065 5:1 6:-0.52767396 7:-0.97401673 
-0 -9.857321049300554 0:-0.47734686 1:-1 2:-0.80137731 3:-0.88256615 4:-0.7709315 5:1 6:-0.51576658 7:-0.98803914 
-0 -32.32914839025874 0:-0.4270048 1:-1 2:-0.77861549 3:-0.88622344 4:-0.74982865 5:1 6:-0.48355038 7:-0.98149417 
