svm_type c_svc
kernel_type rbf
gamma 3.5
nr_class 3
total_sv 97
rho -0.968685 0.671964 0.93216
label 1 2 3
nr_sv 35 22 40
SV
0.4528594171812414 3 0:-0.34358752 1:-1 2:-0.72573657 3:-0.91724437 4:-0.70103986 5:1 6:-0.25563258 7:-0.9965338 
3 3 0:-0.41342756 1:-0.99962805 2:-0.74409522 3:-0.94420681 4:-0.73070485 5:1 6:-0.34164032 7:-1 
3 3 0:-0.43240343 1:-0.99928469 2:-0.74928469 3:-0.95028612 4:-0.73819742 5:1 6:-0.36516452 7:-1 
0 3 0:-0.46644845 1:-1 2:-0.75319149 3:-0.93289689 4:-0.75253682 5:1 6:-0.47561375 7:-0.97479542 
0 3 0:-0.46584053 1:-1 2:-0.75444318 3:-0.93347465 4:-0.75379097 5:1 6:-0.47301484 7:-0.97782488 
2.254679907402058 3 0:-0.46280033 1:-1 2:-0.75708368 3:-0.92676056 4:-0.75277548 5:1 6:-0.47274234 7:-0.97547639 
2.940413899120525 3 0:-0.46664487 1:-1 2:-0.75866579 3:-0.92838457 4:-0.75539568 5:1 6:-0.47874428 7:-0.97482014 
2.622973389523702 3 0:-0.50067751 1:-1 2:-0.76490515 3:-0.92344173 4:-0.76151762 5:1 6:-0.53726287 7:-0.9796748 
0 3 0:-0.48899266 1:-1 2:-0.76117412 3:-0.93195464 4:-0.760507 5:1 6:-0.52201468 7:-0.97798532 
0 3 0:-0.48428928 1:-1 2:-0.76159601 3:-0.93150457 4:-0.7605985 5:1 6:-0.50955943 7:-0.97971737 
3 3 0:-0.43297822 1:-1 2:-0.72523454 3:-0.93830498 4:-0.74208936 5:1 6:-0.43806647 7:-0.98091907 
3 3 0:-0.43614458 1:-1 2:-0.72080321 3:-0.94923695 4:-0.74618474 5:1 6:-0.44032129 7:-0.98939759 
3 3 0:-0.45024916 1:-1 2:-0.73444784 3:-0.94438193 4:-0.74955795 5:1 6:-0.45732197 7:-0.98681884 
3 3 0:-0.43424479 1:-1 2:-0.71289062 3:-0.95540365 4:-0.74707031 5:1 6:-0.44075521 7:-0.99707031 
3 3 0:-0.4520021 1:-1 2:-0.74995629 3:-0.93425424 4:-0.74610946 5:1 6:-0.39569855 7:-0.99930058 
3 3 0:-0.43908503 1:-0.99734792 2:-0.735455 3:-0.94264877 4:-0.75269352 5:1 6:-0.38073927 7:-1 
3 3 0:-0.44207723 1:-1 2:-0.73268975 3:-0.93541944 4:-0.75 5:1 6:-0.38482024 7:-0.99334221 
3 3 0:-0.43457649 1:-1 2:-0.76390645 3:-0.93299621 4:-0.75821745 5:1 6:-0.45764855 7:-0.99051833 
0.466180558772903 3 0:-0.43867999 1:-1 2:-0.77122005 3:-0.93717277 4:-0.7623354 5:1 6:-0.46025702 7:-0.99397112 
0.2628928279995685 3 0:-0.43587302 1:-1 2:-0.76698413 3:-0.92984127 4:-0.75746032 5:1 6:-0.45777778 7:-0.98825397 
3 3 0:-0.43759924 1:-1 2:-0.76532232 3:-0.92950143 4:-0.7573833 5:1 6:-0.45982852 7:-0.98793268 
0 3 0:-0.44249513 1:-1 2:-0.76348278 3:-0.93079922 4:-0.75730994 5:1 6:-0.47076023 7:-0.98050682 
0 3 0:-0.40632848 1:-1 2:-0.74284279 3:-0.93537586 4:-0.74451699 5:1 6:-0.43981249 7:-0.98392767 
0 3 0:-0.42674742 1:-1 2:-0.75151416 3:-0.93419545 4:-0.7528237 5:1 6:-0.45915862 7:-0.98330332 
0 3 0:-0.4330167 1:-1 2:-0.75401245 3:-0.92924992 4:-0.75302981 5:1 6:-0.46609892 7:-0.98100229 
0 3 0:-0.42061006 1:-1 2:-0.74872218 3:-0.92844188 4:-0.74971146 5:1 6:-0.456554 7:-0.98153339 
3 3 0:-0.3890785 1:-1 2:-0.73208191 3:-0.93139932 4:-0.73856655 5:1 6:-0.42866894 7:-0.98395904 
3 3 0:-0.47227067 1:-1 2:-0.78932682 3:-0.88908266 4:-0.7704918 5:1 6:-0.52807813 7:-0.98569934 
3 3 0:-0.45387945 1:-1 2:-0.78354978 3:-0.9000999 4:-0.76523477 5:1 6:-0.51148851 7:-0.98434898 
3 3 0:-0.45038927 1:-1 2:-0.77902932 3:-0.90458837 4:-0.76312738 5:1 6:-0.50472089 7:-0.98409806 
3 3 0:-0.45084409 1:-1 2:-0.7795432 3:-0.90731546 4:-0.76299239 5:1 6:-0.50347567 7:-0.98510427 
3 3 0:-0.44438936 1:-1 2:-0.78020162 3:-0.89919022 4:-0.76070071 5:1 6:-0.4989258 7:-0.98413485 
3 3 0:-0.43459638 1:-1 2:-0.76968699 3:-0.90510708 4:-0.75551895 5:1 6:-0.48434926 7:-0.98385502 
3 3 0:-0.4482075 1:-1 2:-0.77829176 3:-0.90219726 4:-0.76111019 5:1 6:-0.49611763 7:-0.98447051 
0 3 0:-0.4158064 1:-1 2:-0.75731934 3:-0.91301405 4:-0.74716534 5:1 6:-0.46522254 7:-0.98612286 
-3 3 0:-0.39395929 1:-0.99277741 2:-0.70420223 3:-0.95600788 4:-0.74162837 5:1 6:-0.40479317 7:-1 
-3 3 0:-0.3761745 1:-0.99261745 2:-0.69563758 3:-0.95067114 4:-0.73355705 5:1 6:-0.38557047 7:-1 
-3 3 0:-0.41041767 1:-0.99580713 2:-0.71649734 3:-0.95258829 4:-0.7464925 5:1 6:-0.41848089 7:-1 
-3 3 0:-0.42319949 1:-1 2:-0.72657744 3:-0.94996813 4:-0.75047801 5:1 6:-0.4318037 7:-0.9987253 
-3 3 0:-0.43834063 1:-1 2:-0.72743478 3:-0.94457948 4:-0.75465889 5:1 6:-0.3842165 7:-0.99675903 
-3 3 0:-0.44643156 1:-1 2:-0.74293833 3:-0.93448103 4:-0.7553067 5:1 6:-0.39361524 7:-0.98729734 
-3 3 0:-0.44200423 1:-1 2:-0.73450464 3:-0.94110948 4:-0.74914592 5:1 6:-0.38506589 7:-0.98861233 
-3 3 0:-0.46386155 1:-1 2:-0.74855786 3:-0.91720394 4:-0.7478792 5:1 6:-0.41194435 7:-0.97896166 
-3 3 0:-0.46289982 1:-1 2:-0.74443903 3:-0.93602858 4:-0.75288196 5:1 6:-0.41581426 7:-0.98603669 
-3 3 0:-0.45099306 1:-1 2:-0.73066365 3:-0.93088971 4:-0.74874859 5:1 6:-0.40933312 7:-0.98385274 
-3 3 0:-0.45273632 1:-1 2:-0.78109453 3:-0.91847216 4:-0.76215696 5:1 6:-0.47584657 7:-0.98587707 
-3 3 0:-0.45512923 1:-1 2:-0.77973993 3:-0.91395087 4:-0.76175951 5:1 6:-0.47696259 7:-0.98523037 
-3 3 0:-0.44698545 1:-1 2:-0.77450824 3:-0.91715976 4:-0.75819607 5:1 6:-0.47193347 7:-0.98368783 
-3 3 0:-0.51016081 1:-1 2:-0.80314543 3:-0.90952465 4:-0.7695706 5:1 6:-0.56352712 7:-0.99328503 
-3 3 0:-0.48451825 1:-1 2:-0.7920775 3:-0.91108805 4:-0.76543851 5:1 6:-0.53191489 7:-0.98962117 
-3 3 0:-0.47559082 1:-1 2:-0.78678627 3:-0.91029843 4:-0.76401587 5:1 6:-0.52147663 7:-0.98964982 
-3 3 0:-0.42866503 1:-1 2:-0.75233415 3:-0.92760033 4:-0.75298935 5:1 6:-0.46502867 7:-0.98099918 
-3 3 0:-0.4225445 1:-1 2:-0.74686882 3:-0.93012525 4:-0.7495056 5:1 6:-0.45583388 7:-0.98220171 
-3 3 0:-0.44830998 1:-1 2:-0.77873042 3:-0.89480627 4:-0.76026381 5:1 6:-0.49216818 7:-0.98252267 
-3 3 0:-0.44600165 1:-1 2:-0.77642209 3:-0.90107172 4:-0.75993405 5:1 6:-0.4928277 7:-0.98384171 
-3 3 0:-0.44608249 1:-1 2:-0.77439125 3:-0.90425708 4:-0.75848932 5:1 6:-0.49146927 7:-0.98343548 
-3 3 0:-0.43618606 1:-1 2:-0.77056779 3:-0.90531369 4:-0.75500745 5:1 6:-0.48352922 7:-0.98344645 
-3 -0 0:-0.4181934 1:-1 2:-0.74605703 3:-0.94647124 4:-0.75274813 5:1 6:-0.42520312 7:-0.99872551 
-3 -3 0:-0.41694591 1:-1 2:-0.74629009 3:-0.94574757 4:-0.75075794 5:1 6:-0.42332855 7:-0.99648955 
-3 -2.195788449419789 0:-0.4144779 1:-1 2:-0.74471493 3:-0.94650865 4:-0.75176169 5:1 6:-0.42088405 7:-0.99679693 
-3 -3 0:-0.44936306 1:-1 2:-0.77197452 3:-0.92834395 4:-0.75573248 5:1 6:-0.46210191 7:-0.98980892 
-3 -0.0616340802852692 0:-0.41590613 1:-1 2:-0.75 3:-0.94361147 4:-0.74869622 5:1 6:-0.43578879 7:-0.99934811 
-3 -3 0:-0.4323226 1:-1 2:-0.75085964 3:-0.93591747 4:-0.75211003 5:1 6:-0.44451391 7:-0.99374805 
-1.307316160061382 -0 0:-0.4268589 1:-1 2:-0.7498785 3:-0.94038555 4:-0.75182245 5:1 6:-0.44824235 7:-0.99838004 
-3 -3 0:-0.38727547 1:-0.99764982 2:-0.73476582 3:-0.94460299 4:-0.74315931 5:1 6:-0.40574114 7:-1 
-3 -3 0:-0.4445149 1:-1 2:-0.72098922 3:-0.94197844 4:-0.75332911 5:1 6:-0.40678503 7:-0.99207356 
-3 -3 0:-0.44238976 1:-1 2:-0.72372372 3:-0.93867552 4:-0.75343765 5:1 6:-0.40888257 7:-0.99020073 
-3 -3 0:-0.42870677 1:-1 2:-0.71040581 3:-0.94378652 4:-0.75082899 5:1 6:-0.39586294 7:-0.99526291 
-3 -3 0:-0.44533333 1:-1 2:-0.728 3:-0.92784314 4:-0.75309804 5:1 6:-0.42117647 7:-0.98431373 
-3 -2.132091403859637 0:-0.43765664 1:-1 2:-0.72368421 3:-0.93076441 4:-0.75156642 5:1 6:-0.41478697 7:-0.98715539 
-3 -3 0:-0.44021397 1:-1 2:-0.72655758 3:-0.92920076 4:-0.75047199 5:1 6:-0.41378225 7:-0.98867212 
-3 -3 0:-0.43463231 1:-1 2:-0.71904463 3:-0.93746072 4:-0.74984287 5:1 6:-0.41011942 7:-0.99151477 
-3 -2.416589612326915 0:-0.4419259 1:-1 2:-0.72768485 3:-0.93403158 4:-0.75269658 5:1 6:-0.42285446 7:-0.98937002 
-0.6628631204826212 -0 0:-0.43432137 1:-1 2:-0.71170047 3:-0.950078 4:-0.75382215 5:1 6:-0.42152886 7:-0.9975039 
-3 -0 0:-0.44218532 1:-1 2:-0.71379792 3:-0.95064411 4:-0.75632469 5:1 6:-0.43007916 7:-0.99627503 
-3 -3 0:-0.46606335 1:-1 2:-0.78941873 3:-0.90741385 4:-0.75878872 5:1 6:-0.50226244 7:-0.98607727 
-3 -3 0:-0.46379045 1:-1 2:-0.78394111 3:-0.91508303 4:-0.76065742 5:1 6:-0.49700394 7:-0.98459168 
-3 -3 0:-0.46393862 1:-1 2:-0.77936914 3:-0.91372549 4:-0.75754476 5:1 6:-0.49224211 7:-0.97988065 
-3 -0 0:-0.41465915 1:-1 2:-0.74372117 3:-0.93746797 4:-0.74474628 5:1 6:-0.44165385 7:-0.98530668 
-3 -2.082148829256669 0:-0.3620124 1:-1 2:-0.71563981 3:-0.93875319 4:-0.72584761 5:1 6:-0.39154211 7:-0.98942763 
-3 -3 0:-0.45205479 1:-1 2:-0.77079853 3:-0.91881056 4:-0.75676579 5:1 6:-0.48045439 7:-0.98028734 
-3 -0 0:-0.4430759 1:-1 2:-0.76298269 3:-0.92509987 4:-0.75499334 5:1 6:-0.47270306 7:-0.97969374 
-3 -0 0:-0.44085305 1:-1 2:-0.76274575 3:-0.93068977 4:-0.75574808 5:1 6:-0.47084305 7:-0.98267244 
-3 -0 0:-0.43698038 1:-1 2:-0.75889591 3:-0.93315597 4:-0.75390755 5:1 6:-0.46425008 7:-0.98303957 
-3 -0 0:-0.45387945 1:-1 2:-0.77455877 3:-0.91308691 4:-0.76023976 5:1 6:-0.48684649 7:-0.97968698 
-3 -3 0:-0.45022288 1:-1 2:-0.77282483 3:-0.91679049 4:-0.75862638 5:1 6:-0.48126135 7:-0.97952782 
-3 -0.9167771808112306 0:-0.44829854 1:-1 2:-0.77182311 3:-0.91681736 4:-0.75932928 5:1 6:-0.47854677 7:-0.98027289 
-3 -3 0:-0.45008183 1:-1 2:-0.77348609 3:-0.92274959 4:-0.7613748 5:1 6:-0.47855974 7:-0.98101473 
-0.1753362589424583 -0 0:-0.41672263 1:-1 2:-0.75050369 3:-0.92545332 4:-0.74949631 5:1 6:-0.46507723 7:-0.98321021 
-3 -3 0:-0.49419712 1:-1 2:-0.80252901 3:-0.89191062 4:-0.76961718 5:1 6:-0.56833535 7:-0.98614239 
-3 -1.28544135070802 0:-0.48008172 1:-1 2:-0.79502894 3:-0.89785495 4:-0.7671093 5:1 6:-0.55635002 7:-0.98433776 
-3 -0 0:-0.46955937 1:-1 2:-0.78809284 3:-0.90110999 4:-0.76421123 5:1 6:-0.54490414 7:-0.98284561 
-0.4587533779489811 -0 0:-0.46565911 1:-1 2:-0.79277918 3:-0.90092359 4:-0.76792611 5:1 6:-0.53484467 7:-0.98555835 
-3 -0 0:-0.42634373 1:-1 2:-0.76045123 3:-0.91572661 4:-0.75049768 5:1 6:-0.46516257 7:-0.98606503 
-2.926909951805817 -3 0:-0.47734686 1:-1 2:-0.80137731 3:-0.88256615 4:-0.7709315 5:1 6:-0.51576658 7:-0.98803914 
-0 -0.9095290933324702 0:-0.4704407 1:-1 2:-0.79684701 3:-0.87782157 4:-0.76961662 5:1 6:-0.51451093 7:-0.9867431 
-0.4688211307587384 -0 0:-0.4270048 1:-1 2:-0.77861549 3:-0.88622344 4:-0.74982865 5:1 6:-0.48355038 7:-0.98149417 
