svm_type c_svc
kernel_type rbf
gamma 9.1
nr_class 3
total_sv 92
rho -0.445305 -0.91162 -0.724949
label 1 2 3
nr_sv 33 22 37
SV
1.379974348227272 0 0:-0.34358752 1:-1 2:-0.72573657 3:-0.91724437 4:-0.70103986 5:1 6:-0.25563258 7:-0.9965338 
23 23 0:-0.41342756 1:-0.99962805 2:-0.74409522 3:-0.94420681 4:-0.73070485 5:1 6:-0.34164032 7:-1 
23 23 0:-0.43240343 1:-0.99928469 2:-0.74928469 3:-0.95028612 4:-0.73819742 5:1 6:-0.36516452 7:-1 
23 17.39259244762372 0:-0.44869073 1:-0.99646143 2:-0.75088464 3:-0.94338287 4:-0.73991507 5:1 6:-0.37438075 7:-1 
23 23 0:-0.46644845 1:-1 2:-0.75319149 3:-0.93289689 4:-0.75253682 5:1 6:-0.47561375 7:-0.97479542 
23 23 0:-0.46584053 1:-1 2:-0.75444318 3:-0.93347465 4:-0.75379097 5:1 6:-0.47301484 7:-0.97782488 
23 23 0:-0.46280033 1:-1 2:-0.75708368 3:-0.92676056 4:-0.75277548 5:1 6:-0.47274234 7:-0.97547639 
23 23 0:-0.46664487 1:-1 2:-0.75866579 3:-0.92838457 4:-0.75539568 5:1 6:-0.47874428 7:-0.97482014 
19.72413144556312 23 0:-0.50067751 1:-1 2:-0.76490515 3:-0.92344173 4:-0.76151762 5:1 6:-0.53726287 7:-0.9796748 
0 23 0:-0.48899266 1:-1 2:-0.76117412 3:-0.93195464 4:-0.760507 5:1 6:-0.52201468 7:-0.97798532 
0 23 0:-0.48428928 1:-1 2:-0.76159601 3:-0.93150457 4:-0.7605985 5:1 6:-0.50955943 7:-0.97971737 
23 23 0:-0.43297822 1:-1 2:-0.72523454 3:-0.93830498 4:-0.74208936 5:1 6:-0.43806647 7:-0.98091907 
19.51909445384148 23 0:-0.43614458 1:-1 2:-0.72080321 3:-0.94923695 4:-0.74618474 5:1 6:-0.44032129 7:-0.98939759 
0 23 0:-0.45024916 1:-1 2:-0.73444784 3:-0.94438193 4:-0.74955795 5:1 6:-0.45732197 7:-0.98681884 
0 23 0:-0.43424479 1:-1 2:-0.71289062 3:-0.95540365 4:-0.74707031 5:1 6:-0.44075521 7:-0.99707031 
23 23 0:-0.44139902 1:-0.99663696 2:-0.73768287 3:-0.94316462 4:-0.74978981 5:1 6:-0.38355473 7:-1 
23 23 0:-0.43908503 1:-0.99734792 2:-0.735455 3:-0.94264877 4:-0.75269352 5:1 6:-0.38073927 7:-1 
23 23 0:-0.44207723 1:-1 2:-0.73268975 3:-0.93541944 4:-0.75 5:1 6:-0.38482024 7:-0.99334221 
23 23 0:-0.43587302 1:-1 2:-0.76698413 3:-0.92984127 4:-0.75746032 5:1 6:-0.45777778 7:-0.98825397 
23 23 0:-0.43759924 1:-1 2:-0.76532232 3:-0.92950143 4:-0.7573833 5:1 6:-0.45982852 7:-0.98793268 
5.376799752368135 23 0:-0.44249513 1:-1 2:-0.76348278 3:-0.93079922 4:-0.75730994 5:1 6:-0.47076023 7:-0.98050682 
0 23 0:-0.40632848 1:-1 2:-0.74284279 3:-0.93537586 4:-0.74451699 5:1 6:-0.43981249 7:-0.98392767 
0 23 0:-0.42674742 1:-1 2:-0.75151416 3:-0.93419545 4:-0.7528237 5:1 6:-0.45915862 7:-0.98330332 
0 23 0:-0.4330167 1:-1 2:-0.75401245 3:-0.92924992 4:-0.75302981 5:1 6:-0.46609892 7:-0.98100229 
0 23 0:-0.41995054 1:-1 2:-0.74773289 3:-0.92943116 4:-0.7493817 5:1 6:-0.45523495 7:-0.98186315 
0 23 0:-0.42061006 1:-1 2:-0.74872218 3:-0.92844188 4:-0.74971146 5:1 6:-0.456554 7:-0.98153339 
23 23 0:-0.3890785 1:-1 2:-0.73208191 3:-0.93139932 4:-0.73856655 5:1 6:-0.42866894 7:-0.98395904 
23 23 0:-0.45387945 1:-1 2:-0.78354978 3:-0.9000999 4:-0.76523477 5:1 6:-0.51148851 7:-0.98434898 
23 23 0:-0.45038927 1:-1 2:-0.77902932 3:-0.90458837 4:-0.76312738 5:1 6:-0.50472089 7:-0.98409806 
23 23 0:-0.44438936 1:-1 2:-0.78020162 3:-0.89919022 4:-0.76070071 5:1 6:-0.4989258 7:-0.98413485 
23 23 0:-0.43459638 1:-1 2:-0.76968699 3:-0.90510708 4:-0.75551895 5:1 6:-0.48434926 7:-0.98385502 
23 23 0:-0.4482075 1:-1 2:-0.77829176 3:-0.90219726 4:-0.76111019 5:1 6:-0.49611763 7:-0.98447051 
23 23 0:-0.4158064 1:-1 2:-0.75731934 3:-0.91301405 4:-0.74716534 5:1 6:-0.46522254 7:-0.98612286 
-23 23 0:-0.3761745 1:-0.99261745 2:-0.69563758 3:-0.95067114 4:-0.73355705 5:1 6:-0.38557047 7:-1 
-23 23 0:-0.41041767 1:-0.99580713 2:-0.71649734 3:-0.95258829 4:-0.7464925 5:1 6:-0.41848089 7:-1 
-23 23 0:-0.45261058 1:-1 2:-0.73761224 3:-0.92783505 4:-0.75324243 5:1 6:-0.39840372 7:-0.98603259 
-23 23 0:-0.43834063 1:-1 2:-0.72743478 3:-0.94457948 4:-0.75465889 5:1 6:-0.3842165 7:-0.99675903 
-23 23 0:-0.44643156 1:-1 2:-0.74293833 3:-0.93448103 4:-0.7553067 5:1 6:-0.39361524 7:-0.98729734 
-23 23 0:-0.44200423 1:-1 2:-0.73450464 3:-0.94110948 4:-0.74914592 5:1 6:-0.38506589 7:-0.98861233 
-23 23 0:-0.46386155 1:-1 2:-0.74855786 3:-0.91720394 4:-0.7478792 5:1 6:-0.41194435 7:-0.97896166 
-23 23 0:-0.46289982 1:-1 2:-0.74443903 3:-0.93602858 4:-0.75288196 5:1 6:-0.41581426 7:-0.98603669 
-23 23 0:-0.45760475 1:-1 2:-0.74364896 3:-0.92411745 4:-0.74925767 5:1 6:-0.41372484 7:-0.98020455 
-23 23 0:-0.45099306 1:-1 2:-0.73066365 3:-0.93088971 4:-0.74874859 5:1 6:-0.40933312 7:-0.98385274 
-23 23 0:-0.45273632 1:-1 2:-0.78109453 3:-0.91847216 4:-0.76215696 5:1 6:-0.47584657 7:-0.98587707 
-23 23 0:-0.45512923 1:-1 2:-0.77973993 3:-0.91395087 4:-0.76175951 5:1 6:-0.47696259 7:-0.98523037 
-23 23 0:-0.44698545 1:-1 2:-0.77450824 3:-0.91715976 4:-0.75819607 5:1 6:-0.47193347 7:-0.98368783 
-23 23 0:-0.45035234 1:-1 2:-0.77610506 3:-0.91639974 4:-0.75944907 5:1 6:-0.47501602 7:-0.98558616 
-23 23 0:-0.51016081 1:-1 2:-0.80314543 3:-0.90952465 4:-0.7695706 5:1 6:-0.56352712 7:-0.99328503 
-23 23 0:-0.48451825 1:-1 2:-0.7920775 3:-0.91108805 4:-0.76543851 5:1 6:-0.53191489 7:-0.98962117 
-23 23 0:-0.42866503 1:-1 2:-0.75233415 3:-0.92760033 4:-0.75298935 5:1 6:-0.46502867 7:-0.98099918 
-23 23 0:-0.39611717 1:-1 2:-0.73262943 3:-0.93051771 4:-0.74012262 5:1 6:-0.43290191 7:-0.98297003 
-23 23 0:-0.4225445 1:-1 2:-0.74686882 3:-0.93012525 4:-0.7495056 5:1 6:-0.45583388 7:-0.98220171 
-23 23 0:-0.44830998 1:-1 2:-0.77873042 3:-0.89480627 4:-0.76026381 5:1 6:-0.49216818 7:-0.98252267 
-23 23 0:-0.44600165 1:-1 2:-0.77642209 3:-0.90107172 4:-0.75993405 5:1 6:-0.4928277 7:-0.98384171 
-23 23 0:-0.43618606 1:-1 2:-0.77056779 3:-0.90531369 4:-0.75500745 5:1 6:-0.48352922 7:-0.98344645 
-13.37932895046611 -0 0:-0.40340633 1:-0.99837794 2:-0.72879157 3:-0.95036496 4:-0.74566099 5:1 6:-0.41411192 7:-1 
-23 -23 0:-0.4181934 1:-1 2:-0.74605703 3:-0.94647124 4:-0.75274813 5:1 6:-0.42520312 7:-0.99872551 
-23 -23 0:-0.41694591 1:-1 2:-0.74629009 3:-0.94574757 4:-0.75075794 5:1 6:-0.42332855 7:-0.99648955 
-23 -23 0:-0.4330336 1:-1 2:-0.75548194 3:-0.9384761 4:-0.75232687 5:1 6:-0.4415523 7:-0.98864174 
-23 -23 0:-0.43554563 1:-1 2:-0.75813657 3:-0.93395022 4:-0.75015954 5:1 6:-0.45437141 7:-0.98883216 
-23 -0 0:-0.41590613 1:-1 2:-0.75 3:-0.94361147 4:-0.74869622 5:1 6:-0.43578879 7:-0.99934811 
-23 -0 0:-0.41597527 1:-0.99707174 2:-0.74296405 3:-0.94176021 4:-0.7484952 5:1 6:-0.43679844 7:-1 
-23 -0 0:-0.4268589 1:-1 2:-0.7498785 3:-0.94038555 4:-0.75182245 5:1 6:-0.44824235 7:-0.99838004 
-0 -13.32802043770328 0:-0.38727547 1:-0.99764982 2:-0.73476582 3:-0.94460299 4:-0.74315931 5:1 6:-0.40574114 7:-1 
-23 -23 0:-0.4445149 1:-1 2:-0.72098922 3:-0.94197844 4:-0.75332911 5:1 6:-0.40678503 7:-0.99207356 
-23 -23 0:-0.44238976 1:-1 2:-0.72372372 3:-0.93867552 4:-0.75343765 5:1 6:-0.40888257 7:-0.99020073 
-23 -23 0:-0.42870677 1:-1 2:-0.71040581 3:-0.94378652 4:-0.75082899 5:1 6:-0.39586294 7:-0.99526291 
-23 -23 0:-0.45236955 1:-1 2:-0.73671613 3:-0.92659965 4:-0.75363013 5:1 6:-0.42109462 7:-0.98372427 
-23 -23 0:-0.44425278 1:-1 2:-0.72463541 3:-0.93194292 4:-0.75286185 5:1 6:-0.41571272 7:-0.98745492 
-23 -23 0:-0.44021397 1:-1 2:-0.72655758 3:-0.92920076 4:-0.75047199 5:1 6:-0.41378225 7:-0.98867212 
-23 -23 0:-0.4419259 1:-1 2:-0.72768485 3:-0.93403158 4:-0.75269658 5:1 6:-0.42285446 7:-0.98937002 
-23 -13.51784032762311 0:-0.43432137 1:-1 2:-0.71170047 3:-0.950078 4:-0.75382215 5:1 6:-0.42152886 7:-0.9975039 
-23 -0 0:-0.42448726 1:-0.99782474 2:-0.70478558 3:-0.9533872 4:-0.75077688 5:1 6:-0.41858297 7:-1 
-23 -23 0:-0.46606335 1:-1 2:-0.78941873 3:-0.90741385 4:-0.75878872 5:1 6:-0.50226244 7:-0.98607727 
-23 -23 0:-0.46379045 1:-1 2:-0.78394111 3:-0.91508303 4:-0.76065742 5:1 6:-0.49700394 7:-0.98459168 
-23 -23 0:-0.46393862 1:-1 2:-0.77936914 3:-0.91372549 4:-0.75754476 5:1 6:-0.49224211 7:-0.97988065 
-12.31922808545402 -23 0:-0.3620124 1:-1 2:-0.71563981 3:-0.93875319 4:-0.72584761 5:1 6:-0.39154211 7:-0.98942763 
-23 -23 0:-0.45205479 1:-1 2:-0.77079853 3:-0.91881056 4:-0.75676579 5:1 6:-0.48045439 7:-0.98028734 
-23 -0 0:-0.4430759 1:-1 2:-0.76298269 3:-0.92509987 4:-0.75499334 5:1 6:-0.47270306 7:-0.97969374 
-23 -0 0:-0.43698038 1:-1 2:-0.75889591 3:-0.93315597 4:-0.75390755 5:1 6:-0.46425008 7:-0.98303957 
-23 -7.997307131150634 0:-0.45387945 1:-1 2:-0.77455877 3:-0.91308691 4:-0.76023976 5:1 6:-0.48684649 7:-0.97968698 
-23 -23 0:-0.44829854 1:-1 2:-0.77182311 3:-0.91681736 4:-0.75932928 5:1 6:-0.47854677 7:-0.98027289 
-23 -23 0:-0.45008183 1:-1 2:-0.77348609 3:-0.92274959 4:-0.7613748 5:1 6:-0.47855974 7:-0.98101473 
-23 -0 0:-0.45974196 1:-1 2:-0.77494692 3:-0.90854156 4:-0.76547444 5:1 6:-0.50775764 7:-0.97746203 
-23 -0 0:-0.45827901 1:-1 2:-0.77705346 3:-0.90971317 4:-0.76694915 5:1 6:-0.51043025 7:-0.9791395 
-18.10143075572261 -0 0:-0.42794979 1:-1 2:-0.75966527 3:-0.91564854 4:-0.75531381 5:1 6:-0.48317992 7:-0.98359833 
-19.59260465598097 -0 0:-0.49419712 1:-1 2:-0.80252901 3:-0.89191062 4:-0.76961718 5:1 6:-0.56833535 7:-0.98614239 
-23 -0 0:-0.46955937 1:-1 2:-0.78809284 3:-0.90110999 4:-0.76421123 5:1 6:-0.54490414 7:-0.98284561 
-23 -0 0:-0.42634373 1:-1 2:-0.76045123 3:-0.91572661 4:-0.75049768 5:1 6:-0.46516257 7:-0.98606503 
-0 -17.99332652506792 0:-0.48175832 1:-1 2:-0.78964229 3:-0.86794803 4:-0.7665065 5:1 6:-0.52767396 7:-0.97401673 
-0 -23 0:-0.47734686 1:-1 2:-0.80137731 3:-0.88256615 4:-0.7709315 5:1 6:-0.51576658 7:-0.98803914 
-0 -16.16350557845507 0:-0.4704407 1:-1 2:-0.79684701 3:-0.87782157 4:-0.76961662 5:1 6:-0.51451093 7:-0.9867431 
