svm_type c_svc
kernel_type rbf
gamma 4.4
nr_class 3
total_sv 100
rho -0.886261 0.263142 0.760155
label 1 2 3
nr_sv 35 24 41
SV
3.263517381973194 5 0:-0.34358752 1:-1 2:-0.72573657 3:-0.91724437 4:-0.70103986 5:1 6:-0.25563258 7:-0.9965338 
2.586223337007302 5 0:-0.41342756 1:-0.99962805 2:-0.74409522 3:-0.94420681 4:-0.73070485 5:1 6:-0.34164032 7:-1 
0 5 0:-0.43240343 1:-0.99928469 2:-0.74928469 3:-0.95028612 4:-0.73819742 5:1 6:-0.36516452 7:-1 
5 5 0:-0.44869073 1:-0.99646143 2:-0.75088464 3:-0.94338287 4:-0.73991507 5:1 6:-0.37438075 7:-1 
0 5 0:-0.46644845 1:-1 2:-0.75319149 3:-0.93289689 4:-0.75253682 5:1 6:-0.47561375 7:-0.97479542 
0 5 0:-0.46584053 1:-1 2:-0.75444318 3:-0.93347465 4:-0.75379097 5:1 6:-0.47301484 7:-0.97782488 
5 5 0:-0.46280033 1:-1 2:-0.75708368 3:-0.92676056 4:-0.75277548 5:1 6:-0.47274234 7:-0.97547639 
5 5 0:-0.46664487 1:-1 2:-0.75866579 3:-0.92838457 4:-0.75539568 5:1 6:-0.47874428 7:-0.97482014 
5 5 0:-0.50067751 1:-1 2:-0.76490515 3:-0.92344173 4:-0.76151762 5:1 6:-0.53726287 7:-0.9796748 
0 5 0:-0.48899266 1:-1 2:-0.76117412 3:-0.93195464 4:-0.760507 5:1 6:-0.52201468 7:-0.97798532 
1.993479324929309 5 0:-0.48428928 1:-1 2:-0.76159601 3:-0.93150457 4:-0.7605985 5:1 6:-0.50955943 7:-0.97971737 
1.355093554321953 5 0:-0.47439934 1:-1 2:-0.75973488 3:-0.92974316 4:-0.75675228 5:1 6:-0.49229495 7:-0.97580779 
5 5 0:-0.43297822 1:-1 2:-0.72523454 3:-0.93830498 4:-0.74208936 5:1 6:-0.43806647 7:-0.98091907 
5 5 0:-0.43614458 1:-1 2:-0.72080321 3:-0.94923695 4:-0.74618474 5:1 6:-0.44032129 7:-0.98939759 
4.007760497823191 5 0:-0.45024916 1:-1 2:-0.73444784 3:-0.94438193 4:-0.74955795 5:1 6:-0.45732197 7:-0.98681884 
5 5 0:-0.43424479 1:-1 2:-0.71289062 3:-0.95540365 4:-0.74707031 5:1 6:-0.44075521 7:-0.99707031 
5 5 0:-0.4520021 1:-1 2:-0.74995629 3:-0.93425424 4:-0.74610946 5:1 6:-0.39569855 7:-0.99930058 
5 5 0:-0.43908503 1:-0.99734792 2:-0.735455 3:-0.94264877 4:-0.75269352 5:1 6:-0.38073927 7:-1 
5 5 0:-0.44207723 1:-1 2:-0.73268975 3:-0.93541944 4:-0.75 5:1 6:-0.38482024 7:-0.99334221 
5 5 0:-0.43457649 1:-1 2:-0.76390645 3:-0.93299621 4:-0.75821745 5:1 6:-0.45764855 7:-0.99051833 
0 5 0:-0.43867999 1:-1 2:-0.77122005 3:-0.93717277 4:-0.7623354 5:1 6:-0.46025702 7:-0.99397112 
5 5 0:-0.43587302 1:-1 2:-0.76698413 3:-0.92984127 4:-0.75746032 5:1 6:-0.45777778 7:-0.98825397 
5 5 0:-0.43759924 1:-1 2:-0.76532232 3:-0.92950143 4:-0.7573833 5:1 6:-0.45982852 7:-0.98793268 
0.04412641888286428 5 0:-0.44558656 1:-1 2:-0.76407244 3:-0.92853647 4:-0.75656714 5:1 6:-0.47234459 7:-0.97846304 
0 5 0:-0.44249513 1:-1 2:-0.76348278 3:-0.93079922 4:-0.75730994 5:1 6:-0.47076023 7:-0.98050682 
1.749799485062186 5 0:-0.40632848 1:-1 2:-0.74284279 3:-0.93537586 4:-0.74451699 5:1 6:-0.43981249 7:-0.98392767 
0 5 0:-0.42674742 1:-1 2:-0.75151416 3:-0.93419545 4:-0.7528237 5:1 6:-0.45915862 7:-0.98330332 
5 5 0:-0.41995054 1:-1 2:-0.74773289 3:-0.92943116 4:-0.7493817 5:1 6:-0.45523495 7:-0.98186315 
5 5 0:-0.42061006 1:-1 2:-0.74872218 3:-0.92844188 4:-0.74971146 5:1 6:-0.456554 7:-0.98153339 
5 5 0:-0.3890785 1:-1 2:-0.73208191 3:-0.93139932 4:-0.73856655 5:1 6:-0.42866894 7:-0.98395904 
5 5 0:-0.45387945 1:-1 2:-0.78354978 3:-0.9000999 4:-0.76523477 5:1 6:-0.51148851 7:-0.98434898 
5 5 0:-0.45084409 1:-1 2:-0.7795432 3:-0.90731546 4:-0.76299239 5:1 6:-0.50347567 7:-0.98510427 
5 5 0:-0.44438936 1:-1 2:-0.78020162 3:-0.89919022 4:-0.76070071 5:1 6:-0.4989258 7:-0.98413485 
5 5 0:-0.43459638 1:-1 2:-0.76968699 3:-0.90510708 4:-0.75551895 5:1 6:-0.48434926 7:-0.98385502 
5 5 0:-0.4482075 1:-1 2:-0.77829176 3:-0.90219726 4:-0.76111019 5:1 6:-0.49611763 7:-0.98447051 
-5 5 0:-0.39395929 1:-0.99277741 2:-0.70420223 3:-0.95600788 4:-0.74162837 5:1 6:-0.40479317 7:-1 
-5 5 0:-0.3761745 1:-0.99261745 2:-0.69563758 3:-0.95067114 4:-0.73355705 5:1 6:-0.38557047 7:-1 
-5 5 0:-0.41041767 1:-0.99580713 2:-0.71649734 3:-0.95258829 4:-0.7464925 5:1 6:-0.41848089 7:-1 
-5 5 0:-0.42319949 1:-1 2:-0.72657744 3:-0.94996813 4:-0.75047801 5:1 6:-0.4318037 7:-0.9987253 
-5 5 0:-0.45261058 1:-1 2:-0.73761224 3:-0.92783505 4:-0.75324243 5:1 6:-0.39840372 7:-0.98603259 
-5 5 0:-0.43834063 1:-1 2:-0.72743478 3:-0.94457948 4:-0.75465889 5:1 6:-0.3842165 7:-0.99675903 
-5 5 0:-0.44643156 1:-1 2:-0.74293833 3:-0.93448103 4:-0.7553067 5:1 6:-0.39361524 7:-0.98729734 
-5 5 0:-0.44200423 1:-1 2:-0.73450464 3:-0.94110948 4:-0.74914592 5:1 6:-0.38506589 7:-0.98861233 
-5 5 0:-0.46386155 1:-1 2:-0.74855786 3:-0.91720394 4:-0.7478792 5:1 6:-0.41194435 7:-0.97896166 
-5 5 0:-0.45760475 1:-1 2:-0.74364896 3:-0.92411745 4:-0.74925767 5:1 6:-0.41372484 7:-0.98020455 
-5 5 0:-0.45099306 1:-1 2:-0.73066365 3:-0.93088971 4:-0.74874859 5:1 6:-0.40933312 7:-0.98385274 
-5 5 0:-0.45273632 1:-1 2:-0.78109453 3:-0.91847216 4:-0.76215696 5:1 6:-0.47584657 7:-0.98587707 
-5 5 0:-0.45035234 1:-1 2:-0.77610506 3:-0.91639974 4:-0.75944907 5:1 6:-0.47501602 7:-0.98558616 
-5 5 0:-0.51016081 1:-1 2:-0.80314543 3:-0.90952465 4:-0.7695706 5:1 6:-0.56352712 7:-0.99328503 
-5 5 0:-0.4922494 1:-1 2:-0.79331726 3:-0.91594902 4:-0.76782639 5:1 6:-0.54598691 7:-0.9927661 
-5 5 0:-0.47559082 1:-1 2:-0.78678627 3:-0.91029843 4:-0.76401587 5:1 6:-0.52147663 7:-0.98964982 
-5 5 0:-0.41270369 1:-1 2:-0.74359827 3:-0.92949784 4:-0.74625873 5:1 6:-0.44828733 7:-0.9820419 
-5 5 0:-0.42866503 1:-1 2:-0.75233415 3:-0.92760033 4:-0.75298935 5:1 6:-0.46502867 7:-0.98099918 
-5 5 0:-0.39611717 1:-1 2:-0.73262943 3:-0.93051771 4:-0.74012262 5:1 6:-0.43290191 7:-0.98297003 
-5 5 0:-0.4225445 1:-1 2:-0.74686882 3:-0.93012525 4:-0.7495056 5:1 6:-0.45583388 7:-0.98220171 
-5 5 0:-0.44830998 1:-1 2:-0.77873042 3:-0.89480627 4:-0.76026381 5:1 6:-0.49216818 7:-0.98252267 
-5 5 0:-0.44600165 1:-1 2:-0.77642209 3:-0.90107172 4:-0.75993405 5:1 6:-0.4928277 7:-0.98384171 
-5 5 0:-0.44608249 1:-1 2:-0.77439125 3:-0.90425708 4:-0.75848932 5:1 6:-0.49146927 7:-0.98343548 
-5 5 0:-0.43618606 1:-1 2:-0.77056779 3:-0.90531369 4:-0.75500745 5:1 6:-0.48352922 7:-0.98344645 
-5 -5 0:-0.40340633 1:-0.99837794 2:-0.72879157 3:-0.95036496 4:-0.74566099 5:1 6:-0.41411192 7:-1 
-5 -5 0:-0.39508384 1:-0.99576754 2:-0.71935536 3:-0.94823376 4:-0.74442455 5:1 6:-0.4041999 7:-1 
-5 -5 0:-0.41694591 1:-1 2:-0.74629009 3:-0.94574757 4:-0.75075794 5:1 6:-0.42332855 7:-0.99648955 
-5 -5 0:-0.4144779 1:-1 2:-0.74471493 3:-0.94650865 4:-0.75176169 5:1 6:-0.42088405 7:-0.99679693 
-5 -5 0:-0.44936306 1:-1 2:-0.77197452 3:-0.92834395 4:-0.75573248 5:1 6:-0.46210191 7:-0.98980892 
-5 -5 0:-0.43554563 1:-1 2:-0.75813657 3:-0.93395022 4:-0.75015954 5:1 6:-0.45437141 7:-0.98883216 
-5 -0 0:-0.41590613 1:-1 2:-0.75 3:-0.94361147 4:-0.74869622 5:1 6:-0.43578879 7:-0.99934811 
-5 -0 0:-0.41597527 1:-0.99707174 2:-0.74296405 3:-0.94176021 4:-0.7484952 5:1 6:-0.43679844 7:-1 
-5 -0 0:-0.4323226 1:-1 2:-0.75085964 3:-0.93591747 4:-0.75211003 5:1 6:-0.44451391 7:-0.99374805 
-5 -0 0:-0.4268589 1:-1 2:-0.7498785 3:-0.94038555 4:-0.75182245 5:1 6:-0.44824235 7:-0.99838004 
-5 -5 0:-0.43522655 1:-1 2:-0.70995533 3:-0.94830887 4:-0.75047862 5:1 6:-0.39374601 7:-0.99617103 
-5 -5 0:-0.4445149 1:-1 2:-0.72098922 3:-0.94197844 4:-0.75332911 5:1 6:-0.40678503 7:-0.99207356 
-5 -5 0:-0.44238976 1:-1 2:-0.72372372 3:-0.93867552 4:-0.75343765 5:1 6:-0.40888257 7:-0.99020073 
-5 -5 0:-0.42870677 1:-1 2:-0.71040581 3:-0.94378652 4:-0.75082899 5:1 6:-0.39586294 7:-0.99526291 
-5 -5 0:-0.45236955 1:-1 2:-0.73671613 3:-0.92659965 4:-0.75363013 5:1 6:-0.42109462 7:-0.98372427 
-5 -5 0:-0.44425278 1:-1 2:-0.72463541 3:-0.93194292 4:-0.75286185 5:1 6:-0.41571272 7:-0.98745492 
-5 -5 0:-0.44533333 1:-1 2:-0.728 3:-0.92784314 4:-0.75309804 5:1 6:-0.42117647 7:-0.98431373 
-5 -5 0:-0.44021397 1:-1 2:-0.72655758 3:-0.92920076 4:-0.75047199 5:1 6:-0.41378225 7:-0.98867212 
-5 -1.927574455918003 0:-0.44687549 1:-1 2:-0.73146545 3:-0.92727845 4:-0.75318747 5:1 6:-0.42515347 7:-0.98835196 
-5 -0 0:-0.4419259 1:-1 2:-0.72768485 3:-0.93403158 4:-0.75269658 5:1 6:-0.42285446 7:-0.98937002 
-5 -0 0:-0.43432137 1:-1 2:-0.71170047 3:-0.950078 4:-0.75382215 5:1 6:-0.42152886 7:-0.9975039 
-0.1122735513968267 -0 0:-0.42448726 1:-0.99782474 2:-0.70478558 3:-0.9533872 4:-0.75077688 5:1 6:-0.41858297 7:-1 
-5 -5 0:-0.46542972 1:-1 2:-0.79205321 3:-0.90757921 4:-0.75949589 5:1 6:-0.49938736 7:-0.98774724 
-5 -5 0:-0.46379045 1:-1 2:-0.78394111 3:-0.91508303 4:-0.76065742 5:1 6:-0.49700394 7:-0.98459168 
-5 -5 0:-0.42380952 1:-1 2:-0.75068027 3:-0.93537415 4:-0.74659864 5:1 6:-0.44931973 7:-0.98469388 
-5 -5 0:-0.41465915 1:-1 2:-0.74372117 3:-0.93746797 4:-0.74474628 5:1 6:-0.44165385 7:-0.98530668 
-5 -1.587659479264866 0:-0.44085305 1:-1 2:-0.76274575 3:-0.93068977 4:-0.75574808 5:1 6:-0.47084305 7:-0.98267244 
-5 -5 0:-0.45022288 1:-1 2:-0.77282483 3:-0.91679049 4:-0.75862638 5:1 6:-0.48126135 7:-0.97952782 
-5 -0 0:-0.45974196 1:-1 2:-0.77494692 3:-0.90854156 4:-0.76547444 5:1 6:-0.50775764 7:-0.97746203 
-5 -0 0:-0.41672263 1:-1 2:-0.75050369 3:-0.92545332 4:-0.74949631 5:1 6:-0.46507723 7:-0.98321021 
-5 -0 0:-0.45827901 1:-1 2:-0.77705346 3:-0.90971317 4:-0.76694915 5:1 6:-0.51043025 7:-0.9791395 
-5 -5 0:-0.49419712 1:-1 2:-0.80252901 3:-0.89191062 4:-0.76961718 5:1 6:-0.56833535 7:-0.98614239 
-0.9431729317105429 -0 0:-0.46581124 1:-1 2:-0.79030897 3:-0.89566098 4:-0.76464629 5:1 6:-0.54043559 7:-0.981766 
-5 -4.758699232812848 0:-0.47100472 1:-1 2:-0.7973702 3:-0.89851652 4:-0.76837492 5:1 6:-0.54146999 7:-0.98415374 
-0.5183888740924265 -0 0:-0.46565911 1:-1 2:-0.79277918 3:-0.90092359 4:-0.76792611 5:1 6:-0.53484467 7:-0.98555835 
-5 -0 0:-0.45775704 1:-1 2:-0.79070155 3:-0.90134978 4:-0.76570572 5:1 6:-0.5214131 7:-0.98466922 
-1.983328270433321 -0 0:-0.42581182 1:-1 2:-0.76519567 3:-0.90974188 4:-0.75220649 5:1 6:-0.47277269 7:-0.98634471 
-1.543035938660773 -4.331627985987089 0:-0.48175832 1:-1 2:-0.78964229 3:-0.86794803 4:-0.7665065 5:1 6:-0.52767396 7:-0.97401673 
-4.899800433706111 -0.3639044406783121 0:-0.47734686 1:-1 2:-0.80137731 3:-0.88256615 4:-0.7709315 5:1 6:-0.51576658 7:-0.98803914 
-0 -5 0:-0.4270048 1:-1 2:-0.77861549 3:-0.88622344 4:-0.74982865 5:1 6:-0.48355038 7:-0.98149417 
-0 -2.030534405338878 0:-0.4271012 1:-1 2:-0.7780446 3:-0.88610635 4:-0.75128645 5:1 6:-0.48301887 7:-0.98181818 
